<?xml version="1.0"?>
<opencv_storage>
<cascade>
  <stageType>BOOST</stageType>
  <featureType>HAAR</featureType>
  <height>25</height>
  <width>25</width>
  <stageParams>
    <boostType>GAB</boostType>
    <minHitRate>9.9900001287460327e-01</minHitRate>
    <maxFalseAlarm>5.0000000000000000e-01</maxFalseAlarm>
    <weightTrimRate>9.4999999999999996e-01</weightTrimRate>
    <maxDepth>1</maxDepth>
    <maxWeakCount>100</maxWeakCount></stageParams>
  <featureParams>
    <maxCatCount>0</maxCatCount>
    <featSize>1</featSize>
    <mode>ALL</mode></featureParams>
  <stageNum>20</stageNum>
  <stages>
    <!-- stage 0 -->
    <_>
      <maxWeakCount>11</maxWeakCount>
      <stageThreshold>-1.5933841466903687e+00</stageThreshold>
      <weakClassifiers>
        <_>
          <internalNodes>
            0 -1 11 -5.8170124888420105e-02</internalNodes>
          <leafValues>
            8.0110496282577515e-01 -4.6762588620185852e-01</leafValues></_>
        <_>
          <internalNodes>
            0 -1 362 2.2247590124607086e-02</internalNodes>
          <leafValues>
            3.2413372397422791e-01 -8.2259142398834229e-01</leafValues></_>
        <_>
          <internalNodes>
            0 -1 480 -3.0865598469972610e-02</internalNodes>
          <leafValues>
            7.4338763952255249e-01 -2.6679611206054688e-01</leafValues></_>
        <_>
          <internalNodes>
            0 -1 262 -2.5037214159965515e-02</internalNodes>
          <leafValues>
            7.0137846469879150e-01 -2.0932447910308838e-01</leafValues></_>
        <_>
          <internalNodes>
            0 -1 43 1.7579721286892891e-02</internalNodes>
          <leafValues>
            -1.8601958453655243e-01 7.6407253742218018e-01</leafValues></_>
        <_>
          <internalNodes>
            0 -1 507 -2.4378824979066849e-02</internalNodes>
          <leafValues>
            6.2110966444015503e-01 -2.7442720532417297e-01</leafValues></_>
        <_>
          <internalNodes>
            0 -1 147 -3.3747069537639618e-03</internalNodes>
          <leafValues>
            -5.2192473411560059e-01 3.0865189433097839e-01</leafValues></_>
        <_>
          <internalNodes>
            0 -1 42 -2.1582175046205521e-02</internalNodes>
          <leafValues>
            6.7109137773513794e-01 -2.4264936149120331e-01</leafValues></_>
        <_>
          <internalNodes>
            0 -1 95 1.2433400377631187e-02</internalNodes>
          <leafValues>
            -1.8257930874824524e-01 6.7270433902740479e-01</leafValues></_>
        <_>
          <internalNodes>
            0 -1 72 2.2109936922788620e-02</internalNodes>
          <leafValues>
            -2.1734596788883209e-01 5.8342576026916504e-01</leafValues></_>
        <_>
          <internalNodes>
            0 -1 259 -6.6356696188449860e-03</internalNodes>
          <leafValues>
            5.0945794582366943e-01 -2.9891732335090637e-01</leafValues></_></weakClassifiers></_>
    <!-- stage 1 -->
    <_>
      <maxWeakCount>15</maxWeakCount>
      <stageThreshold>-1.2357691526412964e+00</stageThreshold>
      <weakClassifiers>
        <_>
          <internalNodes>
            0 -1 196 -8.0347336828708649e-02</internalNodes>
          <leafValues>
            7.3923736810684204e-01 -2.5540024042129517e-01</leafValues></_>
        <_>
          <internalNodes>
            0 -1 8 5.8731220662593842e-02</internalNodes>
          <leafValues>
            -1.8159031867980957e-01 7.6074522733688354e-01</leafValues></_>
        <_>
          <internalNodes>
            0 -1 598 -1.4454064890742302e-02</internalNodes>
          <leafValues>
            6.0239923000335693e-01 -2.3914358019828796e-01</leafValues></_>
        <_>
          <internalNodes>
            0 -1 235 3.5856794565916061e-02</internalNodes>
          <leafValues>
            -1.8824246525764465e-01 6.4351671934127808e-01</leafValues></_>
        <_>
          <internalNodes>
            0 -1 78 -7.0152901113033295e-02</internalNodes>
          <leafValues>
            6.9095200300216675e-01 -2.1360908448696136e-01</leafValues></_>
        <_>
          <internalNodes>
            0 -1 135 1.3647150993347168e-01</internalNodes>
          <leafValues>
            -1.5811248123645782e-01 7.2198164463043213e-01</leafValues></_>
        <_>
          <internalNodes>
            0 -1 141 1.2168439477682114e-01</internalNodes>
          <leafValues>
            2.1039012074470520e-01 -6.4346295595169067e-01</leafValues></_>
        <_>
          <internalNodes>
            0 -1 31 -1.6830049455165863e-02</internalNodes>
          <leafValues>
            6.3341784477233887e-01 -1.7731793224811554e-01</leafValues></_>
        <_>
          <internalNodes>
            0 -1 18 1.2852448970079422e-02</internalNodes>
          <leafValues>
            -2.2453539073467255e-01 5.7854276895523071e-01</leafValues></_>
        <_>
          <internalNodes>
            0 -1 505 2.1658971905708313e-02</internalNodes>
          <leafValues>
            -2.1397045254707336e-01 5.9186357259750366e-01</leafValues></_>
        <_>
          <internalNodes>
            0 -1 403 -5.7411228772252798e-04</internalNodes>
          <leafValues>
            -7.4131488800048828e-01 1.6899687051773071e-01</leafValues></_>
        <_>
          <internalNodes>
            0 -1 306 -1.5032678842544556e-02</internalNodes>
          <leafValues>
            7.5465393066406250e-01 -1.6624322533607483e-01</leafValues></_>
        <_>
          <internalNodes>
            0 -1 403 4.4900219654664397e-04</internalNodes>
          <leafValues>
            2.2459279000759125e-01 -6.3360959291458130e-01</leafValues></_>
        <_>
          <internalNodes>
            0 -1 133 -2.6207678020000458e-02</internalNodes>
          <leafValues>
            6.3834065198898315e-01 -1.8336272239685059e-01</leafValues></_>
        <_>
          <internalNodes>
            0 -1 73 -3.3830411732196808e-02</internalNodes>
          <leafValues>
            4.0924555063247681e-01 -3.6097976565361023e-01</leafValues></_></weakClassifiers></_>
    <!-- stage 2 -->
    <_>
      <maxWeakCount>17</maxWeakCount>
      <stageThreshold>-1.0986357927322388e+00</stageThreshold>
      <weakClassifiers>
        <_>
          <internalNodes>
            0 -1 595 6.0445815324783325e-03</internalNodes>
          <leafValues>
            -2.6627218723297119e-01 6.2770563364028931e-01</leafValues></_>
        <_>
          <internalNodes>
            0 -1 15 2.7270387858152390e-02</internalNodes>
          <leafValues>
            -1.5064851939678192e-01 7.2032296657562256e-01</leafValues></_>
        <_>
          <internalNodes>
            0 -1 335 -4.5983910560607910e-02</internalNodes>
          <leafValues>
            4.7948923707008362e-01 -2.3179416358470917e-01</leafValues></_>
        <_>
          <internalNodes>
            0 -1 567 -1.2820832489524037e-04</internalNodes>
          <leafValues>
            -5.9157198667526245e-01 1.9099247455596924e-01</leafValues></_>
        <_>
          <internalNodes>
            0 -1 127 -1.9127976149320602e-02</internalNodes>
          <leafValues>
            4.5387166738510132e-01 -2.4332302808761597e-01</leafValues></_>
        <_>
          <internalNodes>
            0 -1 394 -4.8907648306339979e-04</internalNodes>
          <leafValues>
            -6.6050130128860474e-01 1.7016643285751343e-01</leafValues></_>
        <_>
          <internalNodes>
            0 -1 165 2.3284040391445160e-02</internalNodes>
          <leafValues>
            -1.6383588314056396e-01 6.4017128944396973e-01</leafValues></_>
        <_>
          <internalNodes>
            0 -1 541 -6.9111669436097145e-03</internalNodes>
          <leafValues>
            5.0618642568588257e-01 -1.7595371603965759e-01</leafValues></_>
        <_>
          <internalNodes>
            0 -1 444 6.2346307095140219e-04</internalNodes>
          <leafValues>
            1.9427685439586639e-01 -7.0292133092880249e-01</leafValues></_>
        <_>
          <internalNodes>
            0 -1 231 5.5687304120510817e-04</internalNodes>
          <leafValues>
            1.0630751401185989e-01 -6.4890331029891968e-01</leafValues></_>
        <_>
          <internalNodes>
            0 -1 232 -9.6117454813793302e-04</internalNodes>
          <leafValues>
            -6.7421883344650269e-01 1.4793424308300018e-01</leafValues></_>
        <_>
          <internalNodes>
            0 -1 345 -2.1262443624436855e-03</internalNodes>
          <leafValues>
            -6.9541645050048828e-01 1.1899325996637344e-01</leafValues></_>
        <_>
          <internalNodes>
            0 -1 464 6.4204752445220947e-02</internalNodes>
          <leafValues>
            -1.8146665394306183e-01 6.3914340734481812e-01</leafValues></_>
        <_>
          <internalNodes>
            0 -1 16 3.0054308474063873e-02</internalNodes>
          <leafValues>
            -1.1496341973543167e-01 6.8692308664321899e-01</leafValues></_>
        <_>
          <internalNodes>
            0 -1 374 -1.8481649458408356e-02</internalNodes>
          <leafValues>
            4.7930347919464111e-01 -2.1628509461879730e-01</leafValues></_>
        <_>
          <internalNodes>
            0 -1 452 -5.8859866112470627e-04</internalNodes>
          <leafValues>
            -6.5114474296569824e-01 1.4731152355670929e-01</leafValues></_>
        <_>
          <internalNodes>
            0 -1 40 -6.2866732478141785e-03</internalNodes>
          <leafValues>
            4.4921147823333740e-01 -2.2516924142837524e-01</leafValues></_></weakClassifiers></_>
    <!-- stage 3 -->
    <_>
      <maxWeakCount>21</maxWeakCount>
      <stageThreshold>-1.1365573406219482e+00</stageThreshold>
      <weakClassifiers>
        <_>
          <internalNodes>
            0 -1 524 -2.4758253246545792e-02</internalNodes>
          <leafValues>
            5.9086191654205322e-01 -2.6530611515045166e-01</leafValues></_>
        <_>
          <internalNodes>
            0 -1 100 -2.2914193570613861e-02</internalNodes>
          <leafValues>
            6.2833535671234131e-01 -1.9628448784351349e-01</leafValues></_>
        <_>
          <internalNodes>
            0 -1 10 -3.8971930742263794e-02</internalNodes>
          <leafValues>
            5.1840269565582275e-01 -2.6719108223915100e-01</leafValues></_>
        <_>
          <internalNodes>
            0 -1 2 -7.1241272962652147e-05</internalNodes>
          <leafValues>
            -4.5916789770126343e-01 1.8714179098606110e-01</leafValues></_>
        <_>
          <internalNodes>
            0 -1 407 -3.2949156593531370e-04</internalNodes>
          <leafValues>
            -5.7247185707092285e-01 1.3751687109470367e-01</leafValues></_>
        <_>
          <internalNodes>
            0 -1 573 -2.7426113374531269e-03</internalNodes>
          <leafValues>
            4.9190318584442139e-01 -1.8842110037803650e-01</leafValues></_>
        <_>
          <internalNodes>
            0 -1 448 -7.0709723513573408e-04</internalNodes>
          <leafValues>
            -4.8640108108520508e-01 1.6582098603248596e-01</leafValues></_>
        <_>
          <internalNodes>
            0 -1 54 -9.6906098769977689e-04</internalNodes>
          <leafValues>
            4.1527831554412842e-01 -2.0629268884658813e-01</leafValues></_>
        <_>
          <internalNodes>
            0 -1 122 1.6708422917872667e-03</internalNodes>
          <leafValues>
            1.3969872891902924e-01 -6.1301130056381226e-01</leafValues></_>
        <_>
          <internalNodes>
            0 -1 204 -6.0561660211533308e-04</internalNodes>
          <leafValues>
            -6.8189954757690430e-01 1.1793673038482666e-01</leafValues></_>
        <_>
          <internalNodes>
            0 -1 304 8.6118198931217194e-02</internalNodes>
          <leafValues>
            -1.6460332274436951e-01 5.6272274255752563e-01</leafValues></_>
        <_>
          <internalNodes>
            0 -1 180 4.0426757186651230e-02</internalNodes>
          <leafValues>
            -8.5152275860309601e-02 7.1322733163833618e-01</leafValues></_>
        <_>
          <internalNodes>
            0 -1 456 -4.4584926217794418e-03</internalNodes>
          <leafValues>
            4.0819215774536133e-01 -2.0783101022243500e-01</leafValues></_>
        <_>
          <internalNodes>
            0 -1 118 2.0271502435207367e-03</internalNodes>
          <leafValues>
            -2.0027621090412140e-01 4.1570153832435608e-01</leafValues></_>
        <_>
          <internalNodes>
            0 -1 142 -5.1956251263618469e-03</internalNodes>
          <leafValues>
            -7.3389762639999390e-01 1.1093008518218994e-01</leafValues></_>
        <_>
          <internalNodes>
            0 -1 537 7.9540703445672989e-03</internalNodes>
          <leafValues>
            -1.2644328176975250e-01 6.3290655612945557e-01</leafValues></_>
        <_>
          <internalNodes>
            0 -1 411 -6.7908107303082943e-03</internalNodes>
          <leafValues>
            3.2813009619712830e-01 -2.4043580889701843e-01</leafValues></_>
        <_>
          <internalNodes>
            0 -1 455 -5.5514872074127197e-02</internalNodes>
          <leafValues>
            -6.1941313743591309e-01 1.3904176652431488e-01</leafValues></_>
        <_>
          <internalNodes>
            0 -1 324 -6.3547464087605476e-03</internalNodes>
          <leafValues>
            3.9199507236480713e-01 -1.8986324965953827e-01</leafValues></_>
        <_>
          <internalNodes>
            0 -1 449 4.5982486335560679e-04</internalNodes>
          <leafValues>
            -3.6195462942123413e-01 2.4175216257572174e-01</leafValues></_>
        <_>
          <internalNodes>
            0 -1 466 -2.1482010197360069e-04</internalNodes>
          <leafValues>
            -4.6758091449737549e-01 1.6401550173759460e-01</leafValues></_></weakClassifiers></_>
    <!-- stage 4 -->
    <_>
      <maxWeakCount>19</maxWeakCount>
      <stageThreshold>-1.1711070537567139e+00</stageThreshold>
      <weakClassifiers>
        <_>
          <internalNodes>
            0 -1 11 -1.0196839272975922e-01</internalNodes>
          <leafValues>
            6.9596201181411743e-01 -2.4538259208202362e-01</leafValues></_>
        <_>
          <internalNodes>
            0 -1 376 -8.1806510686874390e-02</internalNodes>
          <leafValues>
            -8.0376029014587402e-01 1.9307804107666016e-01</leafValues></_>
        <_>
          <internalNodes>
            0 -1 157 -9.4457119703292847e-03</internalNodes>
          <leafValues>
            6.0905247926712036e-01 -2.0088163018226624e-01</leafValues></_>
        <_>
          <internalNodes>
            0 -1 503 -8.3527840615715832e-05</internalNodes>
          <leafValues>
            -4.8335048556327820e-01 2.2381094098091125e-01</leafValues></_>
        <_>
          <internalNodes>
            0 -1 514 -2.7611381374299526e-03</internalNodes>
          <leafValues>
            -7.5868189334869385e-01 1.0784798115491867e-01</leafValues></_>
        <_>
          <internalNodes>
            0 -1 192 1.9951879978179932e-02</internalNodes>
          <leafValues>
            -2.4019187688827515e-01 4.4136592745780945e-01</leafValues></_>
        <_>
          <internalNodes>
            0 -1 21 2.5028061121702194e-02</internalNodes>
          <leafValues>
            -9.6276462078094482e-02 6.5492105484008789e-01</leafValues></_>
        <_>
          <internalNodes>
            0 -1 599 -1.8674431368708611e-02</internalNodes>
          <leafValues>
            4.2677259445190430e-01 -1.8236407637596130e-01</leafValues></_>
        <_>
          <internalNodes>
            0 -1 245 4.2353011667728424e-03</internalNodes>
          <leafValues>
            1.0142427682876587e-01 -6.4775651693344116e-01</leafValues></_>
        <_>
          <internalNodes>
            0 -1 234 1.8279466778039932e-02</internalNodes>
          <leafValues>
            -1.6740615665912628e-01 4.3795123696327209e-01</leafValues></_>
        <_>
          <internalNodes>
            0 -1 104 3.0855668592266738e-04</internalNodes>
          <leafValues>
            1.4938008785247803e-01 -5.3930735588073730e-01</leafValues></_>
        <_>
          <internalNodes>
            0 -1 252 9.2639165814034641e-06</internalNodes>
          <leafValues>
            -2.3591870069503784e-01 3.2884258031845093e-01</leafValues></_>
        <_>
          <internalNodes>
            0 -1 396 2.6132017374038696e-03</internalNodes>
          <leafValues>
            1.2912443280220032e-01 -5.9490394592285156e-01</leafValues></_>
        <_>
          <internalNodes>
            0 -1 285 1.6031485050916672e-02</internalNodes>
          <leafValues>
            -1.4722982048988342e-01 4.9842184782028198e-01</leafValues></_>
        <_>
          <internalNodes>
            0 -1 406 -7.3831453919410706e-02</internalNodes>
          <leafValues>
            -6.4785492420196533e-01 1.3830164074897766e-01</leafValues></_>
        <_>
          <internalNodes>
            0 -1 219 -6.9131299853324890e-02</internalNodes>
          <leafValues>
            4.8232865333557129e-01 -1.9642798602581024e-01</leafValues></_>
        <_>
          <internalNodes>
            0 -1 529 -3.2479386776685715e-02</internalNodes>
          <leafValues>
            6.0560667514801025e-01 -1.2456046044826508e-01</leafValues></_>
        <_>
          <internalNodes>
            0 -1 601 -6.9363939110189676e-04</internalNodes>
          <leafValues>
            3.1780683994293213e-01 -2.6388752460479736e-01</leafValues></_>
        <_>
          <internalNodes>
            0 -1 250 -1.0875063948333263e-02</internalNodes>
          <leafValues>
            3.2045838236808777e-01 -2.6316455006599426e-01</leafValues></_></weakClassifiers></_>
    <!-- stage 5 -->
    <_>
      <maxWeakCount>17</maxWeakCount>
      <stageThreshold>-1.0398386716842651e+00</stageThreshold>
      <weakClassifiers>
        <_>
          <internalNodes>
            0 -1 427 8.5990615189075470e-02</internalNodes>
          <leafValues>
            4.4875776767730713e-01 -5.7051283121109009e-01</leafValues></_>
        <_>
          <internalNodes>
            0 -1 478 -4.1079102084040642e-04</internalNodes>
          <leafValues>
            -5.5800974369049072e-01 2.2659939527511597e-01</leafValues></_>
        <_>
          <internalNodes>
            0 -1 400 -3.4977687755599618e-04</internalNodes>
          <leafValues>
            -4.2311251163482666e-01 2.9049643874168396e-01</leafValues></_>
        <_>
          <internalNodes>
            0 -1 153 1.8556509166955948e-04</internalNodes>
          <leafValues>
            1.7409610748291016e-01 -5.3984659910202026e-01</leafValues></_>
        <_>
          <internalNodes>
            0 -1 453 -3.1097654253244400e-02</internalNodes>
          <leafValues>
            5.0119048357009888e-01 -2.1246692538261414e-01</leafValues></_>
        <_>
          <internalNodes>
            0 -1 569 -2.6696419809013605e-04</internalNodes>
          <leafValues>
            -5.4070878028869629e-01 1.5810693800449371e-01</leafValues></_>
        <_>
          <internalNodes>
            0 -1 319 7.5777689926326275e-04</internalNodes>
          <leafValues>
            1.7478497326374054e-01 -5.1908391714096069e-01</leafValues></_>
        <_>
          <internalNodes>
            0 -1 409 8.8305711746215820e-02</internalNodes>
          <leafValues>
            1.2500587105751038e-01 -6.0401743650436401e-01</leafValues></_>
        <_>
          <internalNodes>
            0 -1 417 2.0756971207447350e-04</internalNodes>
          <leafValues>
            1.9621950387954712e-01 -4.6604126691818237e-01</leafValues></_>
        <_>
          <internalNodes>
            0 -1 68 2.9569607228040695e-02</internalNodes>
          <leafValues>
            -1.4511591196060181e-01 7.7499902248382568e-01</leafValues></_>
        <_>
          <internalNodes>
            0 -1 29 7.3977075517177582e-03</internalNodes>
          <leafValues>
            -1.0642544925212860e-01 6.5792787075042725e-01</leafValues></_>
        <_>
          <internalNodes>
            0 -1 247 1.7136743990704417e-03</internalNodes>
          <leafValues>
            1.7029847204685211e-01 -5.0944948196411133e-01</leafValues></_>
        <_>
          <internalNodes>
            0 -1 377 -4.0518710738979280e-04</internalNodes>
          <leafValues>
            -5.0739824771881104e-01 1.5335233509540558e-01</leafValues></_>
        <_>
          <internalNodes>
            0 -1 295 4.0097846649587154e-03</internalNodes>
          <leafValues>
            -2.5765192508697510e-01 2.9824179410934448e-01</leafValues></_>
        <_>
          <internalNodes>
            0 -1 238 2.9477875679731369e-02</internalNodes>
          <leafValues>
            -1.7282849550247192e-01 5.1008045673370361e-01</leafValues></_>
        <_>
          <internalNodes>
            0 -1 415 -4.2850905447266996e-04</internalNodes>
          <leafValues>
            -5.4057848453521729e-01 1.7575778067111969e-01</leafValues></_>
        <_>
          <internalNodes>
            0 -1 473 -2.7265790849924088e-02</internalNodes>
          <leafValues>
            7.1035063266754150e-01 -1.2152049690485001e-01</leafValues></_></weakClassifiers></_>
    <!-- stage 6 -->
    <_>
      <maxWeakCount>28</maxWeakCount>
      <stageThreshold>-1.1421575546264648e+00</stageThreshold>
      <weakClassifiers>
        <_>
          <internalNodes>
            0 -1 6 -4.6888060867786407e-02</internalNodes>
          <leafValues>
            6.0377359390258789e-01 1.6597511246800423e-02</leafValues></_>
        <_>
          <internalNodes>
            0 -1 577 -4.2758490890264511e-03</internalNodes>
          <leafValues>
            5.5443680286407471e-01 -1.2665526568889618e-01</leafValues></_>
        <_>
          <internalNodes>
            0 -1 357 -4.5096923713572323e-04</internalNodes>
          <leafValues>
            -4.1407689452171326e-01 2.1126605570316315e-01</leafValues></_>
        <_>
          <internalNodes>
            0 -1 258 -1.7090983688831329e-02</internalNodes>
          <leafValues>
            4.3108612298965454e-01 -1.9284260272979736e-01</leafValues></_>
        <_>
          <internalNodes>
            0 -1 565 -1.4683965127915144e-03</internalNodes>
          <leafValues>
            2.8872549533843994e-01 -2.7539789676666260e-01</leafValues></_>
        <_>
          <internalNodes>
            0 -1 555 -1.8092384561896324e-04</internalNodes>
          <leafValues>
            -4.6907460689544678e-01 1.7289572954177856e-01</leafValues></_>
        <_>
          <internalNodes>
            0 -1 27 -4.9321241676807404e-03</internalNodes>
          <leafValues>
            5.6635195016860962e-01 -1.3938087224960327e-01</leafValues></_>
        <_>
          <internalNodes>
            0 -1 522 -9.5555929874535650e-05</internalNodes>
          <leafValues>
            -4.0521496534347534e-01 1.9135837256908417e-01</leafValues></_>
        <_>
          <internalNodes>
            0 -1 171 -2.8007004875689745e-03</internalNodes>
          <leafValues>
            -6.0244476795196533e-01 1.3490965962409973e-01</leafValues></_>
        <_>
          <internalNodes>
            0 -1 24 -7.9819057136774063e-03</internalNodes>
          <leafValues>
            7.4316817522048950e-01 -1.2276909500360489e-01</leafValues></_>
        <_>
          <internalNodes>
            0 -1 430 -7.3506265878677368e-02</internalNodes>
          <leafValues>
            -6.5275609493255615e-01 1.1845484375953674e-01</leafValues></_>
        <_>
          <internalNodes>
            0 -1 36 1.1932164430618286e-02</internalNodes>
          <leafValues>
            -1.7874512076377869e-01 4.8950770497322083e-01</leafValues></_>
        <_>
          <internalNodes>
            0 -1 316 -5.9812050312757492e-02</internalNodes>
          <leafValues>
            -4.7553944587707520e-01 1.7449033260345459e-01</leafValues></_>
        <_>
          <internalNodes>
            0 -1 500 -1.7940383404493332e-02</internalNodes>
          <leafValues>
            6.4383435249328613e-01 -1.1755524575710297e-01</leafValues></_>
        <_>
          <internalNodes>
            0 -1 364 -6.5808801446110010e-04</internalNodes>
          <leafValues>
            -6.8317383527755737e-01 1.1508630961179733e-01</leafValues></_>
        <_>
          <internalNodes>
            0 -1 283 1.1813908815383911e-02</internalNodes>
          <leafValues>
            -1.3017156720161438e-01 5.1667207479476929e-01</leafValues></_>
        <_>
          <internalNodes>
            0 -1 107 2.6256578043103218e-02</internalNodes>
          <leafValues>
            -1.5331204235553741e-01 4.2830303311347961e-01</leafValues></_>
        <_>
          <internalNodes>
            0 -1 447 -1.3046459935139865e-04</internalNodes>
          <leafValues>
            -3.1254950165748596e-01 2.1653498709201813e-01</leafValues></_>
        <_>
          <internalNodes>
            0 -1 494 1.1811545118689537e-02</internalNodes>
          <leafValues>
            -1.2522494792938232e-01 5.1959568262100220e-01</leafValues></_>
        <_>
          <internalNodes>
            0 -1 421 4.1781557956710458e-04</internalNodes>
          <leafValues>
            1.8019190430641174e-01 -3.7652894854545593e-01</leafValues></_>
        <_>
          <internalNodes>
            0 -1 80 -7.7965110540390015e-02</internalNodes>
          <leafValues>
            4.3620881438255310e-01 -1.6655503213405609e-01</leafValues></_>
        <_>
          <internalNodes>
            0 -1 571 -1.4149222522974014e-02</internalNodes>
          <leafValues>
            5.0137490034103394e-01 -1.2891627848148346e-01</leafValues></_>
        <_>
          <internalNodes>
            0 -1 536 -3.7896577268838882e-03</internalNodes>
          <leafValues>
            -7.0814692974090576e-01 1.0081700235605240e-01</leafValues></_>
        <_>
          <internalNodes>
            0 -1 561 -3.7560113705694675e-03</internalNodes>
          <leafValues>
            4.0309011936187744e-01 -1.7666606605052948e-01</leafValues></_>
        <_>
          <internalNodes>
            0 -1 350 1.5816433588042855e-03</internalNodes>
          <leafValues>
            1.1763827502727509e-01 -6.2849265336990356e-01</leafValues></_>
        <_>
          <internalNodes>
            0 -1 469 3.0311448499560356e-03</internalNodes>
          <leafValues>
            -1.8356494605541229e-01 4.2132017016410828e-01</leafValues></_>
        <_>
          <internalNodes>
            0 -1 492 -5.0902756629511714e-04</internalNodes>
          <leafValues>
            -4.0098467469215393e-01 1.8080753087997437e-01</leafValues></_>
        <_>
          <internalNodes>
            0 -1 341 -7.7819777652621269e-03</internalNodes>
          <leafValues>
            3.9268535375595093e-01 -1.8555054068565369e-01</leafValues></_></weakClassifiers></_>
    <!-- stage 7 -->
    <_>
      <maxWeakCount>27</maxWeakCount>
      <stageThreshold>-1.2338461875915527e+00</stageThreshold>
      <weakClassifiers>
        <_>
          <internalNodes>
            0 -1 11 -7.5078107416629791e-02</internalNodes>
          <leafValues>
            5.8494406938552856e-01 -2.8363046050071716e-01</leafValues></_>
        <_>
          <internalNodes>
            0 -1 12 -1.8518652766942978e-02</internalNodes>
          <leafValues>
            5.7065218687057495e-01 -1.6935452818870544e-01</leafValues></_>
        <_>
          <internalNodes>
            0 -1 149 -3.1681194901466370e-02</internalNodes>
          <leafValues>
            4.2043352127075195e-01 -2.3761735856533051e-01</leafValues></_>
        <_>
          <internalNodes>
            0 -1 162 5.2788957953453064e-02</internalNodes>
          <leafValues>
            -1.5784937143325806e-01 6.2473130226135254e-01</leafValues></_>
        <_>
          <internalNodes>
            0 -1 194 -2.6830051094293594e-02</internalNodes>
          <leafValues>
            5.4145133495330811e-01 -1.3261798024177551e-01</leafValues></_>
        <_>
          <internalNodes>
            0 -1 128 5.8435043320059776e-03</internalNodes>
          <leafValues>
            -1.9851006567478180e-01 3.9856392145156860e-01</leafValues></_>
        <_>
          <internalNodes>
            0 -1 398 3.3116011763922870e-04</internalNodes>
          <leafValues>
            1.6604718565940857e-01 -5.6135922670364380e-01</leafValues></_>
        <_>
          <internalNodes>
            0 -1 159 3.4508343786001205e-02</internalNodes>
          <leafValues>
            -1.1531305313110352e-01 6.0537290573120117e-01</leafValues></_>
        <_>
          <internalNodes>
            0 -1 111 -5.1269340328872204e-03</internalNodes>
          <leafValues>
            3.8965263962745667e-01 -1.7568132281303406e-01</leafValues></_>
        <_>
          <internalNodes>
            0 -1 399 -3.3705052919685841e-03</internalNodes>
          <leafValues>
            -8.2798522710800171e-01 7.7515199780464172e-02</leafValues></_>
        <_>
          <internalNodes>
            0 -1 242 9.4629097729921341e-03</internalNodes>
          <leafValues>
            -1.5840968489646912e-01 4.9002498388290405e-01</leafValues></_>
        <_>
          <internalNodes>
            0 -1 302 2.5383117608726025e-03</internalNodes>
          <leafValues>
            1.2503336369991302e-01 -6.6600191593170166e-01</leafValues></_>
        <_>
          <internalNodes>
            0 -1 240 1.5428930055350065e-03</internalNodes>
          <leafValues>
            -2.5255626440048218e-01 2.5895306468009949e-01</leafValues></_>
        <_>
          <internalNodes>
            0 -1 527 1.6748240450397134e-03</internalNodes>
          <leafValues>
            -2.5483947992324829e-01 2.8521519899368286e-01</leafValues></_>
        <_>
          <internalNodes>
            0 -1 485 3.1375786056742072e-04</internalNodes>
          <leafValues>
            1.4666403830051422e-01 -4.5589482784271240e-01</leafValues></_>
        <_>
          <internalNodes>
            0 -1 517 5.7226093485951424e-03</internalNodes>
          <leafValues>
            9.6216522157192230e-02 -6.3392376899719238e-01</leafValues></_>
        <_>
          <internalNodes>
            0 -1 423 -1.3896012306213379e-01</internalNodes>
          <leafValues>
            -8.4958481788635254e-01 6.7433238029479980e-02</leafValues></_>
        <_>
          <internalNodes>
            0 -1 154 -3.0014812946319580e-03</internalNodes>
          <leafValues>
            5.2681833505630493e-01 -1.3871547579765320e-01</leafValues></_>
        <_>
          <internalNodes>
            0 -1 89 -1.0827715741470456e-03</internalNodes>
          <leafValues>
            3.2555243372917175e-01 -2.0590229332447052e-01</leafValues></_>
        <_>
          <internalNodes>
            0 -1 227 4.6729851514101028e-02</internalNodes>
          <leafValues>
            1.1893684417009354e-01 -6.2291967868804932e-01</leafValues></_>
        <_>
          <internalNodes>
            0 -1 436 2.8591234236955643e-02</internalNodes>
          <leafValues>
            -1.4578226208686829e-01 5.7601839303970337e-01</leafValues></_>
        <_>
          <internalNodes>
            0 -1 356 6.7554458975791931e-02</internalNodes>
          <leafValues>
            -1.2976743280887604e-01 4.9347040057182312e-01</leafValues></_>
        <_>
          <internalNodes>
            0 -1 431 -1.7426277045160532e-03</internalNodes>
          <leafValues>
            -5.5931341648101807e-01 1.3652999699115753e-01</leafValues></_>
        <_>
          <internalNodes>
            0 -1 443 6.9984191213734448e-05</internalNodes>
          <leafValues>
            -2.7639409899711609e-01 2.8053206205368042e-01</leafValues></_>
        <_>
          <internalNodes>
            0 -1 63 -1.3459290377795696e-02</internalNodes>
          <leafValues>
            5.1436066627502441e-01 -1.2616267800331116e-01</leafValues></_>
        <_>
          <internalNodes>
            0 -1 445 7.7791343210265040e-04</internalNodes>
          <leafValues>
            1.3950185477733612e-01 -4.7700789570808411e-01</leafValues></_>
        <_>
          <internalNodes>
            0 -1 355 -2.7921800501644611e-03</internalNodes>
          <leafValues>
            4.9665206670761108e-01 -1.3824629783630371e-01</leafValues></_></weakClassifiers></_>
    <!-- stage 8 -->
    <_>
      <maxWeakCount>29</maxWeakCount>
      <stageThreshold>-1.2733924388885498e+00</stageThreshold>
      <weakClassifiers>
        <_>
          <internalNodes>
            0 -1 9 -1.6688106954097748e-01</internalNodes>
          <leafValues>
            6.6164153814315796e-01 4.9850447103381157e-03</leafValues></_>
        <_>
          <internalNodes>
            0 -1 7 -8.4672212600708008e-02</internalNodes>
          <leafValues>
            5.7440125942230225e-01 -1.3081739842891693e-01</leafValues></_>
        <_>
          <internalNodes>
            0 -1 442 1.1155570973642170e-05</internalNodes>
          <leafValues>
            -2.2554618120193481e-01 3.3657962083816528e-01</leafValues></_>
        <_>
          <internalNodes>
            0 -1 566 -1.1601783626247197e-05</internalNodes>
          <leafValues>
            2.9668557643890381e-01 -2.4189794063568115e-01</leafValues></_>
        <_>
          <internalNodes>
            0 -1 550 3.3423129934817553e-05</internalNodes>
          <leafValues>
            -2.8591132164001465e-01 2.4658666551113129e-01</leafValues></_>
        <_>
          <internalNodes>
            0 -1 382 2.2687702439725399e-03</internalNodes>
          <leafValues>
            1.2591908872127533e-01 -5.8965218067169189e-01</leafValues></_>
        <_>
          <internalNodes>
            0 -1 305 -6.6612511873245239e-02</internalNodes>
          <leafValues>
            6.2927895784378052e-01 -1.1221189796924591e-01</leafValues></_>
        <_>
          <internalNodes>
            0 -1 557 -2.2718951106071472e-02</internalNodes>
          <leafValues>
            2.2806078195571899e-01 -2.9030829668045044e-01</leafValues></_>
        <_>
          <internalNodes>
            0 -1 312 -4.7470428980886936e-03</internalNodes>
          <leafValues>
            -6.5324479341506958e-01 1.1032387614250183e-01</leafValues></_>
        <_>
          <internalNodes>
            0 -1 282 7.3633291758596897e-03</internalNodes>
          <leafValues>
            9.4485871493816376e-02 -6.5678822994232178e-01</leafValues></_>
        <_>
          <internalNodes>
            0 -1 138 -6.3398049678653479e-04</internalNodes>
          <leafValues>
            4.1911149024963379e-01 -1.6487848758697510e-01</leafValues></_>
        <_>
          <internalNodes>
            0 -1 83 9.0791732072830200e-03</internalNodes>
          <leafValues>
            -1.6344602406024933e-01 4.3601360917091370e-01</leafValues></_>
        <_>
          <internalNodes>
            0 -1 418 -2.8329272754490376e-04</internalNodes>
          <leafValues>
            -4.9573501944541931e-01 1.3511127233505249e-01</leafValues></_>
        <_>
          <internalNodes>
            0 -1 458 1.0341793313273229e-05</internalNodes>
          <leafValues>
            -2.2507986426353455e-01 3.3525869250297546e-01</leafValues></_>
        <_>
          <internalNodes>
            0 -1 543 -3.4989342093467712e-03</internalNodes>
          <leafValues>
            4.2954796552658081e-01 -1.5595984458923340e-01</leafValues></_>
        <_>
          <internalNodes>
            0 -1 201 -5.0077715422958136e-04</internalNodes>
          <leafValues>
            2.8989085555076599e-01 -2.3957245051860809e-01</leafValues></_>
        <_>
          <internalNodes>
            0 -1 216 9.1492647698032670e-06</internalNodes>
          <leafValues>
            -2.1562322974205017e-01 3.2295444607734680e-01</leafValues></_>
        <_>
          <internalNodes>
            0 -1 255 4.2657740414142609e-03</internalNodes>
          <leafValues>
            9.0843625366687775e-02 -7.1473234891891479e-01</leafValues></_>
        <_>
          <internalNodes>
            0 -1 459 1.1400334187783301e-05</internalNodes>
          <leafValues>
            -2.4235221743583679e-01 2.8535321354866028e-01</leafValues></_>
        <_>
          <internalNodes>
            0 -1 568 6.0119025874882936e-04</internalNodes>
          <leafValues>
            1.3484379649162292e-01 -5.4952812194824219e-01</leafValues></_>
        <_>
          <internalNodes>
            0 -1 86 3.7013282999396324e-03</internalNodes>
          <leafValues>
            -1.7774340510368347e-01 4.3389227986335754e-01</leafValues></_>
        <_>
          <internalNodes>
            0 -1 310 -2.5778571143746376e-03</internalNodes>
          <leafValues>
            -4.6495151519775391e-01 1.5595582127571106e-01</leafValues></_>
        <_>
          <internalNodes>
            0 -1 303 1.0659106075763702e-02</internalNodes>
          <leafValues>
            8.9975230395793915e-02 -7.4269264936447144e-01</leafValues></_>
        <_>
          <internalNodes>
            0 -1 150 1.1400334187783301e-05</internalNodes>
          <leafValues>
            -2.5606715679168701e-01 2.9928919672966003e-01</leafValues></_>
        <_>
          <internalNodes>
            0 -1 88 -1.9376064883545041e-03</internalNodes>
          <leafValues>
            4.7429519891738892e-01 -1.4845907688140869e-01</leafValues></_>
        <_>
          <internalNodes>
            0 -1 94 4.5002475380897522e-03</internalNodes>
          <leafValues>
            1.0015530139207840e-01 -7.7874714136123657e-01</leafValues></_>
        <_>
          <internalNodes>
            0 -1 450 -5.1796995103359222e-04</internalNodes>
          <leafValues>
            -6.6813302040100098e-01 8.1856116652488708e-02</leafValues></_>
        <_>
          <internalNodes>
            0 -1 496 -4.6318774111568928e-03</internalNodes>
          <leafValues>
            3.7413117289543152e-01 -1.7826738953590393e-01</leafValues></_>
        <_>
          <internalNodes>
            0 -1 426 -6.0839549405500293e-04</internalNodes>
          <leafValues>
            2.9467648267745972e-01 -2.4601197242736816e-01</leafValues></_></weakClassifiers></_>
    <!-- stage 9 -->
    <_>
      <maxWeakCount>26</maxWeakCount>
      <stageThreshold>-1.0399049520492554e+00</stageThreshold>
      <weakClassifiers>
        <_>
          <internalNodes>
            0 -1 465 2.3954421281814575e-01</internalNodes>
          <leafValues>
            3.5149863362312317e-01 -8.7878787517547607e-01</leafValues></_>
        <_>
          <internalNodes>
            0 -1 84 -1.3184410333633423e-01</internalNodes>
          <leafValues>
            -5.7870399951934814e-01 1.6465671360492706e-01</leafValues></_>
        <_>
          <internalNodes>
            0 -1 602 -1.7608985304832458e-02</internalNodes>
          <leafValues>
            3.7544643878936768e-01 -1.8893308937549591e-01</leafValues></_>
        <_>
          <internalNodes>
            0 -1 278 -3.9345696568489075e-03</internalNodes>
          <leafValues>
            4.2713952064514160e-01 -1.6792294383049011e-01</leafValues></_>
        <_>
          <internalNodes>
            0 -1 4 -1.2095317651983351e-04</internalNodes>
          <leafValues>
            -4.3223896622657776e-01 1.4412322640419006e-01</leafValues></_>
        <_>
          <internalNodes>
            0 -1 32 2.2787968628108501e-03</internalNodes>
          <leafValues>
            -9.8515629768371582e-02 6.1319404840469360e-01</leafValues></_>
        <_>
          <internalNodes>
            0 -1 402 3.3002861309796572e-03</internalNodes>
          <leafValues>
            -1.8660086393356323e-01 3.6717844009399414e-01</leafValues></_>
        <_>
          <internalNodes>
            0 -1 597 -3.3221542835235596e-03</internalNodes>
          <leafValues>
            5.7554382085800171e-01 -1.1298977583646774e-01</leafValues></_>
        <_>
          <internalNodes>
            0 -1 202 5.4345501121133566e-04</internalNodes>
          <leafValues>
            -2.1633322536945343e-01 3.2451447844505310e-01</leafValues></_>
        <_>
          <internalNodes>
            0 -1 419 -2.7283118106424809e-04</internalNodes>
          <leafValues>
            -5.2152979373931885e-01 1.2916998565196991e-01</leafValues></_>
        <_>
          <internalNodes>
            0 -1 446 -4.9441400915384293e-04</internalNodes>
          <leafValues>
            -5.3690445423126221e-01 1.3852012157440186e-01</leafValues></_>
        <_>
          <internalNodes>
            0 -1 101 -2.8798677958548069e-03</internalNodes>
          <leafValues>
            4.2055943608283997e-01 -1.5867885947227478e-01</leafValues></_>
        <_>
          <internalNodes>
            0 -1 297 -2.6180488057434559e-03</internalNodes>
          <leafValues>
            -5.8741933107376099e-01 1.1792857199907303e-01</leafValues></_>
        <_>
          <internalNodes>
            0 -1 114 4.9091912806034088e-03</internalNodes>
          <leafValues>
            -1.3179904222488403e-01 5.8302783966064453e-01</leafValues></_>
        <_>
          <internalNodes>
            0 -1 37 3.6118071526288986e-02</internalNodes>
          <leafValues>
            -1.3237264752388000e-01 4.7944626212120056e-01</leafValues></_>
        <_>
          <internalNodes>
            0 -1 274 -8.6625413969159126e-03</internalNodes>
          <leafValues>
            3.9333307743072510e-01 -1.6332186758518219e-01</leafValues></_>
        <_>
          <internalNodes>
            0 -1 317 2.5457942683715373e-05</internalNodes>
          <leafValues>
            -1.8811242282390594e-01 3.3164876699447632e-01</leafValues></_>
        <_>
          <internalNodes>
            0 -1 145 1.3196996878832579e-03</internalNodes>
          <leafValues>
            1.4191524684429169e-01 -4.8425877094268799e-01</leafValues></_>
        <_>
          <internalNodes>
            0 -1 249 2.9508494772017002e-03</internalNodes>
          <leafValues>
            -2.2815263271331787e-01 2.5746858119964600e-01</leafValues></_>
        <_>
          <internalNodes>
            0 -1 497 -3.3706976682879031e-04</internalNodes>
          <leafValues>
            -4.3540769815444946e-01 1.5352532267570496e-01</leafValues></_>
        <_>
          <internalNodes>
            0 -1 190 -1.1061841621994972e-02</internalNodes>
          <leafValues>
            5.8078682422637939e-01 -1.0868207365274429e-01</leafValues></_>
        <_>
          <internalNodes>
            0 -1 594 -2.0828428387176245e-04</internalNodes>
          <leafValues>
            -3.3745193481445312e-01 1.8201401829719543e-01</leafValues></_>
        <_>
          <internalNodes>
            0 -1 307 -1.9016817212104797e-02</internalNodes>
          <leafValues>
            4.0829280018806458e-01 -1.6456104815006256e-01</leafValues></_>
        <_>
          <internalNodes>
            0 -1 359 6.0391193255782127e-04</internalNodes>
          <leafValues>
            -2.0252543687820435e-01 3.7203925848007202e-01</leafValues></_>
        <_>
          <internalNodes>
            0 -1 132 8.5758687928318977e-03</internalNodes>
          <leafValues>
            -3.4668630361557007e-01 1.9423827528953552e-01</leafValues></_>
        <_>
          <internalNodes>
            0 -1 563 -2.3997861717361957e-05</internalNodes>
          <leafValues>
            2.7486199140548706e-01 -2.4276055395603180e-01</leafValues></_></weakClassifiers></_>
    <!-- stage 10 -->
    <_>
      <maxWeakCount>33</maxWeakCount>
      <stageThreshold>-9.0031987428665161e-01</stageThreshold>
      <weakClassifiers>
        <_>
          <internalNodes>
            0 -1 574 1.9125789403915405e-03</internalNodes>
          <leafValues>
            3.7344399839639664e-02 5.7232701778411865e-01</leafValues></_>
        <_>
          <internalNodes>
            0 -1 109 1.1792456731200218e-02</internalNodes>
          <leafValues>
            -1.4287707209587097e-01 4.6302610635757446e-01</leafValues></_>
        <_>
          <internalNodes>
            0 -1 75 -1.8125922651961446e-03</internalNodes>
          <leafValues>
            5.1221024990081787e-01 -1.3231958448886871e-01</leafValues></_>
        <_>
          <internalNodes>
            0 -1 322 1.8144683053833432e-05</internalNodes>
          <leafValues>
            -2.5183665752410889e-01 2.7577483654022217e-01</leafValues></_>
        <_>
          <internalNodes>
            0 -1 34 -6.2976852059364319e-02</internalNodes>
          <leafValues>
            -6.0101819038391113e-01 1.0802765935659409e-01</leafValues></_>
        <_>
          <internalNodes>
            0 -1 81 1.8628402054309845e-01</internalNodes>
          <leafValues>
            6.0821801424026489e-02 -7.7803528308868408e-01</leafValues></_>
        <_>
          <internalNodes>
            0 -1 288 -7.5779883190989494e-03</internalNodes>
          <leafValues>
            4.0285450220108032e-01 -1.6054804623126984e-01</leafValues></_>
        <_>
          <internalNodes>
            0 -1 267 3.3417582511901855e-02</internalNodes>
          <leafValues>
            -9.9412955343723297e-02 6.4770668745040894e-01</leafValues></_>
        <_>
          <internalNodes>
            0 -1 269 8.7119877338409424e-02</internalNodes>
          <leafValues>
            1.1627214401960373e-01 -6.6728854179382324e-01</leafValues></_>
        <_>
          <internalNodes>
            0 -1 544 2.4419319815933704e-03</internalNodes>
          <leafValues>
            -1.9786022603511810e-01 2.9025676846504211e-01</leafValues></_>
        <_>
          <internalNodes>
            0 -1 457 -8.9589448180049658e-04</internalNodes>
          <leafValues>
            3.9988377690315247e-01 -1.8759761750698090e-01</leafValues></_>
        <_>
          <internalNodes>
            0 -1 200 -1.1042048037052155e-01</internalNodes>
          <leafValues>
            -5.7339608669281006e-01 1.1426589637994766e-01</leafValues></_>
        <_>
          <internalNodes>
            0 -1 540 -1.2417228892445564e-02</internalNodes>
          <leafValues>
            4.7339481115341187e-01 -1.6268269717693329e-01</leafValues></_>
        <_>
          <internalNodes>
            0 -1 578 -3.5913891624659300e-03</internalNodes>
          <leafValues>
            2.7997106313705444e-01 -2.1075993776321411e-01</leafValues></_>
        <_>
          <internalNodes>
            0 -1 96 -6.7163689527660608e-04</internalNodes>
          <leafValues>
            2.9998803138732910e-01 -1.9259257614612579e-01</leafValues></_>
        <_>
          <internalNodes>
            0 -1 438 -1.1601783626247197e-05</internalNodes>
          <leafValues>
            2.7337497472763062e-01 -2.0101836323738098e-01</leafValues></_>
        <_>
          <internalNodes>
            0 -1 125 -6.6717853769659996e-04</internalNodes>
          <leafValues>
            -2.8240892291069031e-01 2.1731132268905640e-01</leafValues></_>
        <_>
          <internalNodes>
            0 -1 601 -2.2545061074197292e-03</internalNodes>
          <leafValues>
            3.9148318767547607e-01 -1.5478363633155823e-01</leafValues></_>
        <_>
          <internalNodes>
            0 -1 460 8.9281085820402950e-05</internalNodes>
          <leafValues>
            1.6026969254016876e-01 -4.2079690098762512e-01</leafValues></_>
        <_>
          <internalNodes>
            0 -1 422 -3.0741433147341013e-04</internalNodes>
          <leafValues>
            -3.5793823003768921e-01 1.6110332310199738e-01</leafValues></_>
        <_>
          <internalNodes>
            0 -1 185 7.5958296656608582e-04</internalNodes>
          <leafValues>
            -1.5505197644233704e-01 3.6478972434997559e-01</leafValues></_>
        <_>
          <internalNodes>
            0 -1 223 -6.2890863046050072e-03</internalNodes>
          <leafValues>
            2.6062932610511780e-01 -2.0158135890960693e-01</leafValues></_>
        <_>
          <internalNodes>
            0 -1 173 -4.1049709543585777e-03</internalNodes>
          <leafValues>
            -4.8150891065597534e-01 1.1928826570510864e-01</leafValues></_>
        <_>
          <internalNodes>
            0 -1 381 -1.2363314162939787e-03</internalNodes>
          <leafValues>
            4.6029189229011536e-01 -1.3364563882350922e-01</leafValues></_>
        <_>
          <internalNodes>
            0 -1 592 -1.4017841749591753e-05</internalNodes>
          <leafValues>
            2.2078447043895721e-01 -2.3109285533428192e-01</leafValues></_>
        <_>
          <internalNodes>
            0 -1 551 8.0192025052383542e-05</internalNodes>
          <leafValues>
            -2.1876244246959686e-01 2.7473998069763184e-01</leafValues></_>
        <_>
          <internalNodes>
            0 -1 110 1.7791701480746269e-02</internalNodes>
          <leafValues>
            -2.2781543433666229e-01 2.6575690507888794e-01</leafValues></_>
        <_>
          <internalNodes>
            0 -1 30 6.4656552858650684e-03</internalNodes>
          <leafValues>
            -1.0412400960922241e-01 5.4516196250915527e-01</leafValues></_>
        <_>
          <internalNodes>
            0 -1 33 -1.6072224825620651e-03</internalNodes>
          <leafValues>
            4.9609875679016113e-01 -1.1638700217008591e-01</leafValues></_>
        <_>
          <internalNodes>
            0 -1 389 -3.8320306688547134e-02</internalNodes>
          <leafValues>
            -4.7896596789360046e-01 1.2831972539424896e-01</leafValues></_>
        <_>
          <internalNodes>
            0 -1 435 -2.0248699001967907e-05</internalNodes>
          <leafValues>
            2.3944473266601562e-01 -2.1928562223911285e-01</leafValues></_>
        <_>
          <internalNodes>
            0 -1 263 1.4247423969209194e-03</internalNodes>
          <leafValues>
            -2.1182928979396820e-01 2.5661760568618774e-01</leafValues></_>
        <_>
          <internalNodes>
            0 -1 339 6.3477456569671631e-03</internalNodes>
          <leafValues>
            -9.8484329879283905e-02 5.9013932943344116e-01</leafValues></_></weakClassifiers></_>
    <!-- stage 11 -->
    <_>
      <maxWeakCount>32</maxWeakCount>
      <stageThreshold>-1.0170720815658569e+00</stageThreshold>
      <weakClassifiers>
        <_>
          <internalNodes>
            0 -1 483 6.4599043689668179e-03</internalNodes>
          <leafValues>
            -6.2266499735414982e-03 5.0815558433532715e-01</leafValues></_>
        <_>
          <internalNodes>
            0 -1 513 4.5685144141316414e-04</internalNodes>
          <leafValues>
            1.4988020062446594e-01 -5.1877665519714355e-01</leafValues></_>
        <_>
          <internalNodes>
            0 -1 52 8.2940852735191584e-04</internalNodes>
          <leafValues>
            -1.7581385374069214e-01 3.2609313726425171e-01</leafValues></_>
        <_>
          <internalNodes>
            0 -1 176 1.0972970630973577e-03</internalNodes>
          <leafValues>
            9.4889387488365173e-02 -5.8746898174285889e-01</leafValues></_>
        <_>
          <internalNodes>
            0 -1 106 -9.4728440046310425e-02</internalNodes>
          <leafValues>
            2.7333578467369080e-01 -2.0052473247051239e-01</leafValues></_>
        <_>
          <internalNodes>
            0 -1 67 5.2788760513067245e-04</internalNodes>
          <leafValues>
            1.1607009917497635e-01 -4.1661113500595093e-01</leafValues></_>
        <_>
          <internalNodes>
            0 -1 92 -2.0748435053974390e-03</internalNodes>
          <leafValues>
            2.7073228359222412e-01 -2.0893579721450806e-01</leafValues></_>
        <_>
          <internalNodes>
            0 -1 370 -3.3947449992410839e-04</internalNodes>
          <leafValues>
            -4.8122176527976990e-01 1.2867905199527740e-01</leafValues></_>
        <_>
          <internalNodes>
            0 -1 174 -5.4490991169586778e-04</internalNodes>
          <leafValues>
            -5.0154113769531250e-01 8.7721817195415497e-02</leafValues></_>
        <_>
          <internalNodes>
            0 -1 518 -5.2201822400093079e-03</internalNodes>
          <leafValues>
            2.4536477029323578e-01 -2.2010630369186401e-01</leafValues></_>
        <_>
          <internalNodes>
            0 -1 4 -1.4003035903442651e-04</internalNodes>
          <leafValues>
            -3.6866253614425659e-01 1.2409526854753494e-01</leafValues></_>
        <_>
          <internalNodes>
            0 -1 177 -6.0451338067650795e-03</internalNodes>
          <leafValues>
            3.6470180749893188e-01 -1.4334584772586823e-01</leafValues></_>
        <_>
          <internalNodes>
            0 -1 395 -1.0065846145153046e-02</internalNodes>
          <leafValues>
            -6.2953317165374756e-01 9.1861687600612640e-02</leafValues></_>
        <_>
          <internalNodes>
            0 -1 400 2.9374612495303154e-04</internalNodes>
          <leafValues>
            1.3629288971424103e-01 -3.3486267924308777e-01</leafValues></_>
        <_>
          <internalNodes>
            0 -1 353 1.1407366022467613e-02</internalNodes>
          <leafValues>
            -1.4981590211391449e-01 3.3479008078575134e-01</leafValues></_>
        <_>
          <internalNodes>
            0 -1 97 -7.3595531284809113e-03</internalNodes>
          <leafValues>
            3.3779746294021606e-01 -1.7114996910095215e-01</leafValues></_>
        <_>
          <internalNodes>
            0 -1 300 7.7905360376462340e-04</internalNodes>
          <leafValues>
            9.9545285105705261e-02 -4.9290874600410461e-01</leafValues></_>
        <_>
          <internalNodes>
            0 -1 85 2.4119406938552856e-02</internalNodes>
          <leafValues>
            -1.9081994891166687e-01 2.9589509963989258e-01</leafValues></_>
        <_>
          <internalNodes>
            0 -1 481 -3.8137219380587339e-03</internalNodes>
          <leafValues>
            1.7345336079597473e-01 -3.4978321194648743e-01</leafValues></_>
        <_>
          <internalNodes>
            0 -1 560 -3.1726914457976818e-03</internalNodes>
          <leafValues>
            -5.2802962064743042e-01 8.7625123560428619e-02</leafValues></_>
        <_>
          <internalNodes>
            0 -1 454 1.6112344339489937e-02</internalNodes>
          <leafValues>
            -1.6014006733894348e-01 3.7297654151916504e-01</leafValues></_>
        <_>
          <internalNodes>
            0 -1 537 5.4690651595592499e-03</internalNodes>
          <leafValues>
            -1.1970247328281403e-01 5.4112786054611206e-01</leafValues></_>
        <_>
          <internalNodes>
            0 -1 511 1.6728189075365663e-03</internalNodes>
          <leafValues>
            1.3008856773376465e-01 -4.7194099426269531e-01</leafValues></_>
        <_>
          <internalNodes>
            0 -1 116 -2.2022146731615067e-03</internalNodes>
          <leafValues>
            2.9890930652618408e-01 -2.0490474998950958e-01</leafValues></_>
        <_>
          <internalNodes>
            0 -1 228 1.4310365542769432e-02</internalNodes>
          <leafValues>
            -1.2024291604757309e-01 5.1871305704116821e-01</leafValues></_>
        <_>
          <internalNodes>
            0 -1 330 1.8552918918430805e-03</internalNodes>
          <leafValues>
            1.1099455505609512e-01 -5.3763532638549805e-01</leafValues></_>
        <_>
          <internalNodes>
            0 -1 603 -3.4500443143770099e-04</internalNodes>
          <leafValues>
            2.4000254273414612e-01 -2.3027332127094269e-01</leafValues></_>
        <_>
          <internalNodes>
            0 -1 531 -3.7984186783432961e-03</internalNodes>
          <leafValues>
            4.3137624859809875e-01 -1.3031265139579773e-01</leafValues></_>
        <_>
          <internalNodes>
            0 -1 272 -1.8351867794990540e-02</internalNodes>
          <leafValues>
            -4.1496622562408447e-01 1.2862418591976166e-01</leafValues></_>
        <_>
          <internalNodes>
            0 -1 491 1.4597083209082484e-03</internalNodes>
          <leafValues>
            9.3582794070243835e-02 -5.1822382211685181e-01</leafValues></_>
        <_>
          <internalNodes>
            0 -1 13 2.4197351187467575e-02</internalNodes>
          <leafValues>
            -1.6153611242771149e-01 2.9423257708549500e-01</leafValues></_>
        <_>
          <internalNodes>
            0 -1 588 -7.7890686225146055e-04</internalNodes>
          <leafValues>
            3.7775218486785889e-01 -1.3418853282928467e-01</leafValues></_></weakClassifiers></_>
    <!-- stage 12 -->
    <_>
      <maxWeakCount>41</maxWeakCount>
      <stageThreshold>-1.0510426759719849e+00</stageThreshold>
      <weakClassifiers>
        <_>
          <internalNodes>
            0 -1 261 -2.8856229037046432e-02</internalNodes>
          <leafValues>
            6.9696968793869019e-01 4.9773756414651871e-02</leafValues></_>
        <_>
          <internalNodes>
            0 -1 151 -5.2904095500707626e-03</internalNodes>
          <leafValues>
            4.0813630819320679e-01 -9.7919993102550507e-02</leafValues></_>
        <_>
          <internalNodes>
            0 -1 525 3.4014373086392879e-03</internalNodes>
          <leafValues>
            -1.4427290856838226e-01 4.4449126720428467e-01</leafValues></_>
        <_>
          <internalNodes>
            0 -1 552 2.9738587327301502e-03</internalNodes>
          <leafValues>
            -9.0027898550033569e-02 5.2562224864959717e-01</leafValues></_>
        <_>
          <internalNodes>
            0 -1 281 3.5483852028846741e-02</internalNodes>
          <leafValues>
            -1.0512789338827133e-01 5.8849495649337769e-01</leafValues></_>
        <_>
          <internalNodes>
            0 -1 137 8.7307523936033249e-03</internalNodes>
          <leafValues>
            -2.3229601979255676e-01 3.3010032773017883e-01</leafValues></_>
        <_>
          <internalNodes>
            0 -1 371 6.8573432508856058e-04</internalNodes>
          <leafValues>
            1.1158385127782822e-01 -4.9353715777397156e-01</leafValues></_>
        <_>
          <internalNodes>
            0 -1 530 -5.0460351631045341e-03</internalNodes>
          <leafValues>
            3.3428245782852173e-01 -1.5908189117908478e-01</leafValues></_>
        <_>
          <internalNodes>
            0 -1 293 3.8808155804872513e-03</internalNodes>
          <leafValues>
            1.1951291561126709e-01 -5.7591468095779419e-01</leafValues></_>
        <_>
          <internalNodes>
            0 -1 384 -5.3286943584680557e-02</internalNodes>
          <leafValues>
            2.1335044503211975e-01 -2.1519625186920166e-01</leafValues></_>
        <_>
          <internalNodes>
            0 -1 197 -1.8667813390493393e-02</internalNodes>
          <leafValues>
            6.9642776250839233e-01 -7.4134364724159241e-02</leafValues></_>
        <_>
          <internalNodes>
            0 -1 93 -3.1529655680060387e-03</internalNodes>
          <leafValues>
            -4.9508604407310486e-01 1.1044930666685104e-01</leafValues></_>
        <_>
          <internalNodes>
            0 -1 420 1.2214663729537278e-04</internalNodes>
          <leafValues>
            1.5316911041736603e-01 -3.5179165005683899e-01</leafValues></_>
        <_>
          <internalNodes>
            0 -1 166 1.0113948024809361e-02</internalNodes>
          <leafValues>
            -1.0458605736494064e-01 5.1953542232513428e-01</leafValues></_>
        <_>
          <internalNodes>
            0 -1 103 6.7342841066420078e-03</internalNodes>
          <leafValues>
            -9.0683251619338989e-02 5.5731767416000366e-01</leafValues></_>
        <_>
          <internalNodes>
            0 -1 139 6.8874536082148552e-03</internalNodes>
          <leafValues>
            -7.3563039302825928e-02 6.1411839723587036e-01</leafValues></_>
        <_>
          <internalNodes>
            0 -1 294 -3.9970852434635162e-02</internalNodes>
          <leafValues>
            -6.2907940149307251e-01 9.1936305165290833e-02</leafValues></_>
        <_>
          <internalNodes>
            0 -1 222 -6.4051136374473572e-02</internalNodes>
          <leafValues>
            -5.3323465585708618e-01 9.0681172907352448e-02</leafValues></_>
        <_>
          <internalNodes>
            0 -1 392 1.2113056072848849e-05</internalNodes>
          <leafValues>
            -2.1256445348262787e-01 2.2835893929004669e-01</leafValues></_>
        <_>
          <internalNodes>
            0 -1 229 -3.5841143690049648e-03</internalNodes>
          <leafValues>
            2.5114390254020691e-01 -2.0617105066776276e-01</leafValues></_>
        <_>
          <internalNodes>
            0 -1 351 -9.1036973753944039e-04</internalNodes>
          <leafValues>
            2.7641996741294861e-01 -1.9326587021350861e-01</leafValues></_>
        <_>
          <internalNodes>
            0 -1 372 4.7205369919538498e-03</internalNodes>
          <leafValues>
            -9.7528882324695587e-02 5.0890344381332397e-01</leafValues></_>
        <_>
          <internalNodes>
            0 -1 271 1.8908234313130379e-02</internalNodes>
          <leafValues>
            1.2672603130340576e-01 -4.0841981768608093e-01</leafValues></_>
        <_>
          <internalNodes>
            0 -1 499 2.1022167056798935e-02</internalNodes>
          <leafValues>
            -1.1783791333436966e-01 4.5159623026847839e-01</leafValues></_>
        <_>
          <internalNodes>
            0 -1 471 -9.4887064769864082e-03</internalNodes>
          <leafValues>
            2.6529222726821899e-01 -1.9323700666427612e-01</leafValues></_>
        <_>
          <internalNodes>
            0 -1 539 5.2218674682080746e-04</internalNodes>
          <leafValues>
            1.0379249602556229e-01 -5.1639276742935181e-01</leafValues></_>
        <_>
          <internalNodes>
            0 -1 336 -2.0378565415740013e-02</internalNodes>
          <leafValues>
            1.8130131065845490e-01 -3.0538764595985413e-01</leafValues></_>
        <_>
          <internalNodes>
            0 -1 554 2.4573068367317319e-04</internalNodes>
          <leafValues>
            -1.6858913004398346e-01 3.3122521638870239e-01</leafValues></_>
        <_>
          <internalNodes>
            0 -1 367 9.2428468633443117e-04</internalNodes>
          <leafValues>
            -1.5609493851661682e-01 3.5840284824371338e-01</leafValues></_>
        <_>
          <internalNodes>
            0 -1 66 2.1598680177703500e-04</internalNodes>
          <leafValues>
            1.1954203993082047e-01 -4.4699096679687500e-01</leafValues></_>
        <_>
          <internalNodes>
            0 -1 70 2.8350311331450939e-03</internalNodes>
          <leafValues>
            -8.5973352193832397e-02 5.6621527671813965e-01</leafValues></_>
        <_>
          <internalNodes>
            0 -1 424 -3.9117436972446740e-04</internalNodes>
          <leafValues>
            -5.0068289041519165e-01 1.1033640056848526e-01</leafValues></_>
        <_>
          <internalNodes>
            0 -1 369 -5.6547224521636963e-03</internalNodes>
          <leafValues>
            4.6477195620536804e-01 -1.1030279844999313e-01</leafValues></_>
        <_>
          <internalNodes>
            0 -1 533 1.6898332396522164e-03</internalNodes>
          <leafValues>
            -1.5927489101886749e-01 3.4569820761680603e-01</leafValues></_>
        <_>
          <internalNodes>
            0 -1 383 -4.6997135505080223e-03</internalNodes>
          <leafValues>
            -4.9426174163818359e-01 1.2225342541933060e-01</leafValues></_>
        <_>
          <internalNodes>
            0 -1 534 1.2105898000299931e-02</internalNodes>
          <leafValues>
            -9.8862633109092712e-02 5.6070131063461304e-01</leafValues></_>
        <_>
          <internalNodes>
            0 -1 429 -6.2746927142143250e-03</internalNodes>
          <leafValues>
            2.2967028617858887e-01 -2.2556251287460327e-01</leafValues></_>
        <_>
          <internalNodes>
            0 -1 358 4.0318099781870842e-03</internalNodes>
          <leafValues>
            -1.4402686059474945e-01 3.7045314908027649e-01</leafValues></_>
        <_>
          <internalNodes>
            0 -1 579 2.0891078747808933e-03</internalNodes>
          <leafValues>
            1.3458880782127380e-01 -3.8052833080291748e-01</leafValues></_>
        <_>
          <internalNodes>
            0 -1 562 -1.5991902910172939e-03</internalNodes>
          <leafValues>
            -4.3051728606224060e-01 1.2835456430912018e-01</leafValues></_>
        <_>
          <internalNodes>
            0 -1 168 -8.9700403623282909e-04</internalNodes>
          <leafValues>
            -3.5479977726936340e-01 1.4441633224487305e-01</leafValues></_></weakClassifiers></_>
    <!-- stage 13 -->
    <_>
      <maxWeakCount>47</maxWeakCount>
      <stageThreshold>-1.0896588563919067e+00</stageThreshold>
      <weakClassifiers>
        <_>
          <internalNodes>
            0 -1 48 2.5340206921100616e-02</internalNodes>
          <leafValues>
            1.0880828648805618e-01 6.1990952491760254e-01</leafValues></_>
        <_>
          <internalNodes>
            0 -1 17 -3.8667168468236923e-02</internalNodes>
          <leafValues>
            4.8529615998268127e-01 -1.1455070972442627e-01</leafValues></_>
        <_>
          <internalNodes>
            0 -1 488 -1.1378526687622070e-02</internalNodes>
          <leafValues>
            3.3287933468818665e-01 -1.6086472570896149e-01</leafValues></_>
        <_>
          <internalNodes>
            0 -1 187 1.1164102033944800e-05</internalNodes>
          <leafValues>
            -2.3557619750499725e-01 2.1501784026622772e-01</leafValues></_>
        <_>
          <internalNodes>
            0 -1 76 -5.4610185325145721e-03</internalNodes>
          <leafValues>
            5.2466762065887451e-01 -9.8658047616481781e-02</leafValues></_>
        <_>
          <internalNodes>
            0 -1 508 1.1899761855602264e-02</internalNodes>
          <leafValues>
            -4.0731016546487808e-02 7.6752364635467529e-01</leafValues></_>
        <_>
          <internalNodes>
            0 -1 280 -7.9120201990008354e-03</internalNodes>
          <leafValues>
            -4.5602479577064514e-01 1.1064966022968292e-01</leafValues></_>
        <_>
          <internalNodes>
            0 -1 591 4.9041624879464507e-04</internalNodes>
          <leafValues>
            -1.5260826051235199e-01 2.9598301649093628e-01</leafValues></_>
        <_>
          <internalNodes>
            0 -1 23 2.0514151547104120e-03</internalNodes>
          <leafValues>
            -1.2756489217281342e-01 3.5748043656349182e-01</leafValues></_>
        <_>
          <internalNodes>
            0 -1 113 2.4871781468391418e-02</internalNodes>
          <leafValues>
            -1.5515372157096863e-01 3.1754893064498901e-01</leafValues></_>
        <_>
          <internalNodes>
            0 -1 119 -8.8838301599025726e-04</internalNodes>
          <leafValues>
            3.0215105414390564e-01 -1.5464118123054504e-01</leafValues></_>
        <_>
          <internalNodes>
            0 -1 57 -1.1164102033944800e-05</internalNodes>
          <leafValues>
            2.5009113550186157e-01 -2.2160921990871429e-01</leafValues></_>
        <_>
          <internalNodes>
            0 -1 594 2.4968702928163111e-04</internalNodes>
          <leafValues>
            9.7671344876289368e-02 -5.0807517766952515e-01</leafValues></_>
        <_>
          <internalNodes>
            0 -1 375 -2.7574624866247177e-02</internalNodes>
          <leafValues>
            4.0863299369812012e-01 -1.1383274942636490e-01</leafValues></_>
        <_>
          <internalNodes>
            0 -1 407 -2.3404171224683523e-04</internalNodes>
          <leafValues>
            -4.4826412200927734e-01 1.2111939489841461e-01</leafValues></_>
        <_>
          <internalNodes>
            0 -1 243 2.5606485083699226e-02</internalNodes>
          <leafValues>
            -1.0361796617507935e-01 4.7081902623176575e-01</leafValues></_>
        <_>
          <internalNodes>
            0 -1 193 -9.1913640499114990e-03</internalNodes>
          <leafValues>
            4.9271005392074585e-01 -9.2303462326526642e-02</leafValues></_>
        <_>
          <internalNodes>
            0 -1 1 -1.6995835176203400e-04</internalNodes>
          <leafValues>
            -3.2576420903205872e-01 1.6035807132720947e-01</leafValues></_>
        <_>
          <internalNodes>
            0 -1 266 -1.8049184232950211e-02</internalNodes>
          <leafValues>
            3.5044053196907043e-01 -1.4727325737476349e-01</leafValues></_>
        <_>
          <internalNodes>
            0 -1 407 2.8534594457596540e-04</internalNodes>
          <leafValues>
            1.1485677957534790e-01 -4.0495026111602783e-01</leafValues></_>
        <_>
          <internalNodes>
            0 -1 608 -2.9810681007802486e-04</internalNodes>
          <leafValues>
            2.1843661367893219e-01 -2.3616451025009155e-01</leafValues></_>
        <_>
          <internalNodes>
            0 -1 225 4.7598090022802353e-03</internalNodes>
          <leafValues>
            8.2471750676631927e-02 -6.4480602741241455e-01</leafValues></_>
        <_>
          <internalNodes>
            0 -1 475 -8.5256242891773582e-04</internalNodes>
          <leafValues>
            2.8900897502899170e-01 -1.7007474601268768e-01</leafValues></_>
        <_>
          <internalNodes>
            0 -1 349 -1.0188203305006027e-02</internalNodes>
          <leafValues>
            3.3014383912086487e-01 -1.4181028306484222e-01</leafValues></_>
        <_>
          <internalNodes>
            0 -1 366 -2.2212909534573555e-03</internalNodes>
          <leafValues>
            3.8721248507499695e-01 -1.1589694023132324e-01</leafValues></_>
        <_>
          <internalNodes>
            0 -1 329 -3.6382133839651942e-04</internalNodes>
          <leafValues>
            -4.0434315800666809e-01 1.1653950065374374e-01</leafValues></_>
        <_>
          <internalNodes>
            0 -1 71 2.0632897503674030e-03</internalNodes>
          <leafValues>
            -1.2111825495958328e-01 3.7209647893905640e-01</leafValues></_>
        <_>
          <internalNodes>
            0 -1 347 -2.8727143071591854e-03</internalNodes>
          <leafValues>
            3.0865460634231567e-01 -1.3627810776233673e-01</leafValues></_>
        <_>
          <internalNodes>
            0 -1 170 -3.8253320381045341e-03</internalNodes>
          <leafValues>
            -6.9073385000228882e-01 6.6051773726940155e-02</leafValues></_>
        <_>
          <internalNodes>
            0 -1 87 -1.7757289111614227e-02</internalNodes>
          <leafValues>
            -5.9918260574340820e-01 6.5631791949272156e-02</leafValues></_>
        <_>
          <internalNodes>
            0 -1 538 -5.2326330915093422e-03</internalNodes>
          <leafValues>
            2.9116460680961609e-01 -1.6134011745452881e-01</leafValues></_>
        <_>
          <internalNodes>
            0 -1 49 3.5465019941329956e-01</internalNodes>
          <leafValues>
            -5.9677731245756149e-02 8.5000020265579224e-01</leafValues></_>
        <_>
          <internalNodes>
            0 -1 161 1.1771691497415304e-03</internalNodes>
          <leafValues>
            -1.1357939243316650e-01 3.7276029586791992e-01</leafValues></_>
        <_>
          <internalNodes>
            0 -1 542 -5.0028343684971333e-04</internalNodes>
          <leafValues>
            -4.8180627822875977e-01 1.0011270642280579e-01</leafValues></_>
        <_>
          <internalNodes>
            0 -1 218 -7.0665720850229263e-03</internalNodes>
          <leafValues>
            4.0352657437324524e-01 -1.1778803169727325e-01</leafValues></_>
        <_>
          <internalNodes>
            0 -1 593 -2.7150445384904742e-04</internalNodes>
          <leafValues>
            -3.5084903240203857e-01 1.4183427393436432e-01</leafValues></_>
        <_>
          <internalNodes>
            0 -1 334 -1.2037443957524374e-04</internalNodes>
          <leafValues>
            -2.7404659986495972e-01 1.7248290777206421e-01</leafValues></_>
        <_>
          <internalNodes>
            0 -1 270 5.2139890613034368e-05</internalNodes>
          <leafValues>
            -2.3018237948417664e-01 2.0709271728992462e-01</leafValues></_>
        <_>
          <internalNodes>
            0 -1 585 -7.4202415999025106e-04</internalNodes>
          <leafValues>
            3.3077421784400940e-01 -1.4083437621593475e-01</leafValues></_>
        <_>
          <internalNodes>
            0 -1 581 1.5580586623400450e-03</internalNodes>
          <leafValues>
            -1.5890167653560638e-01 2.9215186834335327e-01</leafValues></_>
        <_>
          <internalNodes>
            0 -1 28 1.7633195966482162e-03</internalNodes>
          <leafValues>
            -1.4913187921047211e-01 3.0249625444412231e-01</leafValues></_>
        <_>
          <internalNodes>
            0 -1 441 3.0927654734114185e-05</internalNodes>
          <leafValues>
            -1.9450290501117706e-01 2.5135460495948792e-01</leafValues></_>
        <_>
          <internalNodes>
            0 -1 99 -9.6855175797827542e-05</internalNodes>
          <leafValues>
            -3.1010365486145020e-01 1.5438023209571838e-01</leafValues></_>
        <_>
          <internalNodes>
            0 -1 121 -3.1358371488749981e-03</internalNodes>
          <leafValues>
            -5.7092988491058350e-01 7.9685457050800323e-02</leafValues></_>
        <_>
          <internalNodes>
            0 -1 148 -2.6323031634092331e-03</internalNodes>
          <leafValues>
            3.8281512260437012e-01 -1.3724994659423828e-01</leafValues></_>
        <_>
          <internalNodes>
            0 -1 64 -2.9447776614688337e-04</internalNodes>
          <leafValues>
            -3.8981997966766357e-01 1.2662348151206970e-01</leafValues></_>
        <_>
          <internalNodes>
            0 -1 277 7.0355562493205070e-03</internalNodes>
          <leafValues>
            -1.0716039687395096e-01 4.5338147878646851e-01</leafValues></_></weakClassifiers></_>
    <!-- stage 14 -->
    <_>
      <maxWeakCount>36</maxWeakCount>
      <stageThreshold>-9.3774092197418213e-01</stageThreshold>
      <weakClassifiers>
        <_>
          <internalNodes>
            0 -1 490 -1.7598720733076334e-03</internalNodes>
          <leafValues>
            -4.4508671760559082e-01 3.3426770567893982e-01</leafValues></_>
        <_>
          <internalNodes>
            0 -1 260 -2.8176724910736084e-02</internalNodes>
          <leafValues>
            3.4860381484031677e-01 -1.4530843496322632e-01</leafValues></_>
        <_>
          <internalNodes>
            0 -1 332 -4.6716853976249695e-03</internalNodes>
          <leafValues>
            -6.3174575567245483e-01 8.1386558711528778e-02</leafValues></_>
        <_>
          <internalNodes>
            0 -1 368 -9.6861433121375740e-05</internalNodes>
          <leafValues>
            -3.3119633793830872e-01 1.4570337533950806e-01</leafValues></_>
        <_>
          <internalNodes>
            0 -1 564 -2.2739335690857843e-05</internalNodes>
          <leafValues>
            2.3299729824066162e-01 -1.9847635924816132e-01</leafValues></_>
        <_>
          <internalNodes>
            0 -1 558 1.7330778064206243e-03</internalNodes>
          <leafValues>
            1.0757329314947128e-01 -4.0562179684638977e-01</leafValues></_>
        <_>
          <internalNodes>
            0 -1 287 4.5818807557225227e-03</internalNodes>
          <leafValues>
            1.0276018828153610e-01 -5.6978797912597656e-01</leafValues></_>
        <_>
          <internalNodes>
            0 -1 309 1.0191516950726509e-02</internalNodes>
          <leafValues>
            -1.2064106762409210e-01 4.6462380886077881e-01</leafValues></_>
        <_>
          <internalNodes>
            0 -1 186 -3.5081014502793550e-03</internalNodes>
          <leafValues>
            4.5184126496315002e-01 -9.9080756306648254e-02</leafValues></_>
        <_>
          <internalNodes>
            0 -1 130 7.3331713792867959e-05</internalNodes>
          <leafValues>
            -1.9214504957199097e-01 2.5440886616706848e-01</leafValues></_>
        <_>
          <internalNodes>
            0 -1 265 -6.9393343292176723e-03</internalNodes>
          <leafValues>
            -4.7586035728454590e-01 1.0178630799055099e-01</leafValues></_>
        <_>
          <internalNodes>
            0 -1 284 -1.8562092445790768e-03</internalNodes>
          <leafValues>
            -4.9079671502113342e-01 9.3780599534511566e-02</leafValues></_>
        <_>
          <internalNodes>
            0 -1 354 -8.7356921285390854e-03</internalNodes>
          <leafValues>
            3.8825586438179016e-01 -1.2597718834877014e-01</leafValues></_>
        <_>
          <internalNodes>
            0 -1 35 1.2674201279878616e-03</internalNodes>
          <leafValues>
            -1.3576215505599976e-01 3.4350156784057617e-01</leafValues></_>
        <_>
          <internalNodes>
            0 -1 515 4.6702023246325552e-04</internalNodes>
          <leafValues>
            9.3320883810520172e-02 -4.6958747506141663e-01</leafValues></_>
        <_>
          <internalNodes>
            0 -1 388 -1.1632279893092345e-05</internalNodes>
          <leafValues>
            2.2766564786434174e-01 -2.0970986783504486e-01</leafValues></_>
        <_>
          <internalNodes>
            0 -1 576 -5.8877025730907917e-04</internalNodes>
          <leafValues>
            4.7843506932258606e-01 -8.5119158029556274e-02</leafValues></_>
        <_>
          <internalNodes>
            0 -1 474 -5.6756902486085892e-03</internalNodes>
          <leafValues>
            -5.5392092466354370e-01 8.3889231085777283e-02</leafValues></_>
        <_>
          <internalNodes>
            0 -1 535 -1.3032199603912886e-05</internalNodes>
          <leafValues>
            2.2724844515323639e-01 -2.1639822423458099e-01</leafValues></_>
        <_>
          <internalNodes>
            0 -1 570 -1.9431003602221608e-03</internalNodes>
          <leafValues>
            3.3174952864646912e-01 -1.3913530111312866e-01</leafValues></_>
        <_>
          <internalNodes>
            0 -1 102 -2.4933137465268373e-03</internalNodes>
          <leafValues>
            3.9164099097251892e-01 -1.1717043817043304e-01</leafValues></_>
        <_>
          <internalNodes>
            0 -1 120 -2.3140564560890198e-02</internalNodes>
          <leafValues>
            -6.7525047063827515e-01 7.0682078599929810e-02</leafValues></_>
        <_>
          <internalNodes>
            0 -1 184 -6.3319811597466469e-03</internalNodes>
          <leafValues>
            4.8925721645355225e-01 -1.1377889662981033e-01</leafValues></_>
        <_>
          <internalNodes>
            0 -1 479 -5.7946157176047564e-04</internalNodes>
          <leafValues>
            -3.7828084826469421e-01 1.3146936893463135e-01</leafValues></_>
        <_>
          <internalNodes>
            0 -1 60 1.0904271221079398e-05</internalNodes>
          <leafValues>
            -2.0162458717823029e-01 2.4006868898868561e-01</leafValues></_>
        <_>
          <internalNodes>
            0 -1 606 -5.3360819583758712e-04</internalNodes>
          <leafValues>
            2.0605932176113129e-01 -2.3410291969776154e-01</leafValues></_>
        <_>
          <internalNodes>
            0 -1 325 -1.1157249900861643e-05</internalNodes>
          <leafValues>
            2.2117163240909576e-01 -2.0507039129734039e-01</leafValues></_>
        <_>
          <internalNodes>
            0 -1 239 -9.7892445046454668e-04</internalNodes>
          <leafValues>
            3.1774267554283142e-01 -1.4220567047595978e-01</leafValues></_>
        <_>
          <internalNodes>
            0 -1 468 6.1215899884700775e-02</internalNodes>
          <leafValues>
            8.9089259505271912e-02 -5.2289438247680664e-01</leafValues></_>
        <_>
          <internalNodes>
            0 -1 224 3.8641694933176041e-02</internalNodes>
          <leafValues>
            1.0279685258865356e-01 -4.9525862932205200e-01</leafValues></_>
        <_>
          <internalNodes>
            0 -1 105 3.3467359025962651e-04</internalNodes>
          <leafValues>
            9.0875267982482910e-02 -4.8977875709533691e-01</leafValues></_>
        <_>
          <internalNodes>
            0 -1 546 -6.4297080971300602e-03</internalNodes>
          <leafValues>
            -5.4979676008224487e-01 8.0286175012588501e-02</leafValues></_>
        <_>
          <internalNodes>
            0 -1 198 2.2355503460858017e-05</internalNodes>
          <leafValues>
            -1.7802879214286804e-01 2.8850182890892029e-01</leafValues></_>
        <_>
          <internalNodes>
            0 -1 77 -3.5506996791809797e-03</internalNodes>
          <leafValues>
            2.8453862667083740e-01 -1.7026068270206451e-01</leafValues></_>
        <_>
          <internalNodes>
            0 -1 340 -9.5706377178430557e-03</internalNodes>
          <leafValues>
            3.8435751199722290e-01 -1.0765296965837479e-01</leafValues></_>
        <_>
          <internalNodes>
            0 -1 136 -1.5848082304000854e-01</internalNodes>
          <leafValues>
            -4.7906598448753357e-01 1.0359086096286774e-01</leafValues></_></weakClassifiers></_>
    <!-- stage 15 -->
    <_>
      <maxWeakCount>42</maxWeakCount>
      <stageThreshold>-8.8530737161636353e-01</stageThreshold>
      <weakClassifiers>
        <_>
          <internalNodes>
            0 -1 567 -1.2689849245361984e-04</internalNodes>
          <leafValues>
            -2.0930232107639313e-01 3.3830103278160095e-01</leafValues></_>
        <_>
          <internalNodes>
            0 -1 526 -7.6364558190107346e-03</internalNodes>
          <leafValues>
            3.5415017604827881e-01 -1.2125685065984726e-01</leafValues></_>
        <_>
          <internalNodes>
            0 -1 189 -4.6089813113212585e-03</internalNodes>
          <leafValues>
            3.0222937464714050e-01 -1.3941802084445953e-01</leafValues></_>
        <_>
          <internalNodes>
            0 -1 463 7.8950781608000398e-04</internalNodes>
          <leafValues>
            1.0853274166584015e-01 -3.4020188450813293e-01</leafValues></_>
        <_>
          <internalNodes>
            0 -1 44 -6.0360482893884182e-03</internalNodes>
          <leafValues>
            3.4658634662628174e-01 -1.0286812484264374e-01</leafValues></_>
        <_>
          <internalNodes>
            0 -1 268 -1.1185719631612301e-02</internalNodes>
          <leafValues>
            2.6378321647644043e-01 -1.9575896859169006e-01</leafValues></_>
        <_>
          <internalNodes>
            0 -1 487 -2.6739165186882019e-02</internalNodes>
          <leafValues>
            -4.6786245703697205e-01 9.8215885460376740e-02</leafValues></_>
        <_>
          <internalNodes>
            0 -1 600 4.3894918635487556e-03</internalNodes>
          <leafValues>
            -8.4109045565128326e-02 5.1156687736511230e-01</leafValues></_>
        <_>
          <internalNodes>
            0 -1 589 -1.1081526281486731e-05</internalNodes>
          <leafValues>
            2.2086581587791443e-01 -1.9214335083961487e-01</leafValues></_>
        <_>
          <internalNodes>
            0 -1 183 -7.2693364927545190e-04</internalNodes>
          <leafValues>
            -3.4778392314910889e-01 1.2665720283985138e-01</leafValues></_>
        <_>
          <internalNodes>
            0 -1 589 5.7594652753323317e-04</internalNodes>
          <leafValues>
            -7.0400863885879517e-02 5.4193407297134399e-01</leafValues></_>
        <_>
          <internalNodes>
            0 -1 210 -5.2016782574355602e-03</internalNodes>
          <leafValues>
            -4.2224171757698059e-01 1.0538958013057709e-01</leafValues></_>
        <_>
          <internalNodes>
            0 -1 311 -2.9383439570665359e-02</internalNodes>
          <leafValues>
            3.5308817028999329e-01 -1.3564881682395935e-01</leafValues></_>
        <_>
          <internalNodes>
            0 -1 158 -3.6551295779645443e-03</internalNodes>
          <leafValues>
            4.5498639345169067e-01 -9.3599885702133179e-02</leafValues></_>
        <_>
          <internalNodes>
            0 -1 160 1.8292262684553862e-03</internalNodes>
          <leafValues>
            -1.1732628941535950e-01 4.5258548855781555e-01</leafValues></_>
        <_>
          <internalNodes>
            0 -1 156 -6.6422820964362472e-05</internalNodes>
          <leafValues>
            -2.1501423418521881e-01 2.1215406060218811e-01</leafValues></_>
        <_>
          <internalNodes>
            0 -1 5 -4.0479906601831317e-05</internalNodes>
          <leafValues>
            -2.6059043407440186e-01 1.7247496545314789e-01</leafValues></_>
        <_>
          <internalNodes>
            0 -1 208 1.3616928830742836e-02</internalNodes>
          <leafValues>
            -7.2931520640850067e-02 6.3374906778335571e-01</leafValues></_>
        <_>
          <internalNodes>
            0 -1 360 2.2624462842941284e-02</internalNodes>
          <leafValues>
            -7.3794141411781311e-02 5.7720583677291870e-01</leafValues></_>
        <_>
          <internalNodes>
            0 -1 144 2.3370962589979172e-03</internalNodes>
          <leafValues>
            6.4645089209079742e-02 -8.1507569551467896e-01</leafValues></_>
        <_>
          <internalNodes>
            0 -1 61 -6.0934489592909813e-03</internalNodes>
          <leafValues>
            3.7315252423286438e-01 -1.2567421793937683e-01</leafValues></_>
        <_>
          <internalNodes>
            0 -1 434 -4.1141193360090256e-03</internalNodes>
          <leafValues>
            -6.3155955076217651e-01 6.9437764585018158e-02</leafValues></_>
        <_>
          <internalNodes>
            0 -1 65 8.3631795132532716e-04</internalNodes>
          <leafValues>
            9.4803459942340851e-02 -4.1289022564888000e-01</leafValues></_>
        <_>
          <internalNodes>
            0 -1 253 -1.8776275683194399e-03</internalNodes>
          <leafValues>
            -3.8830015063285828e-01 1.0253688693046570e-01</leafValues></_>
        <_>
          <internalNodes>
            0 -1 82 1.3324392493814230e-03</internalNodes>
          <leafValues>
            -6.3566908240318298e-02 7.2779750823974609e-01</leafValues></_>
        <_>
          <internalNodes>
            0 -1 273 -2.8144235257059336e-03</internalNodes>
          <leafValues>
            2.5547304749488831e-01 -1.5174816548824310e-01</leafValues></_>
        <_>
          <internalNodes>
            0 -1 117 -2.4406637996435165e-02</internalNodes>
          <leafValues>
            -8.6600375175476074e-01 5.4790470749139786e-02</leafValues></_>
        <_>
          <internalNodes>
            0 -1 413 3.7590474821627140e-03</internalNodes>
          <leafValues>
            -1.3729292154312134e-01 3.3936256170272827e-01</leafValues></_>
        <_>
          <internalNodes>
            0 -1 175 -9.3429534899769351e-06</internalNodes>
          <leafValues>
            2.1610732376575470e-01 -1.8854531645774841e-01</leafValues></_>
        <_>
          <internalNodes>
            0 -1 380 -2.6733882259577513e-03</internalNodes>
          <leafValues>
            -4.7188612818717957e-01 8.6807206273078918e-02</leafValues></_>
        <_>
          <internalNodes>
            0 -1 47 4.4110566377639771e-03</internalNodes>
          <leafValues>
            -1.0209885239601135e-01 4.3851792812347412e-01</leafValues></_>
        <_>
          <internalNodes>
            0 -1 482 9.5249934020102955e-06</internalNodes>
          <leafValues>
            -1.9375225901603699e-01 2.0602971315383911e-01</leafValues></_>
        <_>
          <internalNodes>
            0 -1 108 9.1900806874036789e-03</internalNodes>
          <leafValues>
            -6.8078145384788513e-02 5.5497288703918457e-01</leafValues></_>
        <_>
          <internalNodes>
            0 -1 143 4.1511021554470062e-02</internalNodes>
          <leafValues>
            5.0727136433124542e-02 -8.8632589578628540e-01</leafValues></_>
        <_>
          <internalNodes>
            0 -1 586 1.3826505746692419e-03</internalNodes>
          <leafValues>
            -1.3551667332649231e-01 3.3264049887657166e-01</leafValues></_>
        <_>
          <internalNodes>
            0 -1 251 -4.8554159700870514e-02</internalNodes>
          <leafValues>
            -5.6208992004394531e-01 8.4585405886173248e-02</leafValues></_>
        <_>
          <internalNodes>
            0 -1 414 -1.5530548989772797e-03</internalNodes>
          <leafValues>
            2.6094737648963928e-01 -1.7503754794597626e-01</leafValues></_>
        <_>
          <internalNodes>
            0 -1 501 -5.6632829364389181e-04</internalNodes>
          <leafValues>
            -3.6005723476409912e-01 1.2859505414962769e-01</leafValues></_>
        <_>
          <internalNodes>
            0 -1 440 2.6104182470589876e-03</internalNodes>
          <leafValues>
            -1.2604655325412750e-01 3.8833406567573547e-01</leafValues></_>
        <_>
          <internalNodes>
            0 -1 365 2.9826893296558410e-05</internalNodes>
          <leafValues>
            -1.8827705085277557e-01 2.0816622674465179e-01</leafValues></_>
        <_>
          <internalNodes>
            0 -1 337 -1.0315872495993972e-03</internalNodes>
          <leafValues>
            3.2569804787635803e-01 -1.2747709453105927e-01</leafValues></_>
        <_>
          <internalNodes>
            0 -1 596 -1.3416918227449059e-04</internalNodes>
          <leafValues>
            -3.1729802489280701e-01 1.3558247685432434e-01</leafValues></_></weakClassifiers></_>
    <!-- stage 16 -->
    <_>
      <maxWeakCount>41</maxWeakCount>
      <stageThreshold>-9.4117271900177002e-01</stageThreshold>
      <weakClassifiers>
        <_>
          <internalNodes>
            0 -1 555 -1.0377388389315456e-04</internalNodes>
          <leafValues>
            -1.6111111640930176e-01 3.6935484409332275e-01</leafValues></_>
        <_>
          <internalNodes>
            0 -1 56 1.3072082772850990e-02</internalNodes>
          <leafValues>
            -1.3873682916164398e-01 3.4212180972099304e-01</leafValues></_>
        <_>
          <internalNodes>
            0 -1 140 3.9929933845996857e-02</internalNodes>
          <leafValues>
            -9.1667905449867249e-02 4.7953388094902039e-01</leafValues></_>
        <_>
          <internalNodes>
            0 -1 289 -3.0508032068610191e-03</internalNodes>
          <leafValues>
            -4.3716782331466675e-01 8.3555385470390320e-02</leafValues></_>
        <_>
          <internalNodes>
            0 -1 314 -2.3840896785259247e-02</internalNodes>
          <leafValues>
            3.1113547086715698e-01 -1.3254706561565399e-01</leafValues></_>
        <_>
          <internalNodes>
            0 -1 386 3.1203991966322064e-04</internalNodes>
          <leafValues>
            5.7379964739084244e-02 -4.7008630633354187e-01</leafValues></_>
        <_>
          <internalNodes>
            0 -1 333 -3.2495507039129734e-03</internalNodes>
          <leafValues>
            4.1450017690658569e-01 -1.0071802139282227e-01</leafValues></_>
        <_>
          <internalNodes>
            0 -1 55 4.9347326159477234e-02</internalNodes>
          <leafValues>
            8.8328450918197632e-02 -4.8713701963424683e-01</leafValues></_>
        <_>
          <internalNodes>
            0 -1 301 2.7706082910299301e-03</internalNodes>
          <leafValues>
            5.9517215937376022e-02 -6.3130956888198853e-01</leafValues></_>
        <_>
          <internalNodes>
            0 -1 516 1.6435183351859450e-03</internalNodes>
          <leafValues>
            -1.3163141906261444e-01 3.4068205952644348e-01</leafValues></_>
        <_>
          <internalNodes>
            0 -1 209 -1.6598252579569817e-02</internalNodes>
          <leafValues>
            4.5697957277297974e-01 -9.1737598180770874e-02</leafValues></_>
        <_>
          <internalNodes>
            0 -1 181 -4.6541524352505803e-04</internalNodes>
          <leafValues>
            -4.2238754034042358e-01 1.0933392494916916e-01</leafValues></_>
        <_>
          <internalNodes>
            0 -1 290 2.0105978474020958e-03</internalNodes>
          <leafValues>
            -1.9966131448745728e-01 2.1611039340496063e-01</leafValues></_>
        <_>
          <internalNodes>
            0 -1 203 3.0341572710312903e-04</internalNodes>
          <leafValues>
            -1.8610808253288269e-01 2.2101232409477234e-01</leafValues></_>
        <_>
          <internalNodes>
            0 -1 590 -6.2503584194928408e-04</internalNodes>
          <leafValues>
            1.8696691095829010e-01 -2.2425892949104309e-01</leafValues></_>
        <_>
          <internalNodes>
            0 -1 609 9.1492647698032670e-06</internalNodes>
          <leafValues>
            -2.2089685499668121e-01 1.9420349597930908e-01</leafValues></_>
        <_>
          <internalNodes>
            0 -1 179 -1.8824618309736252e-03</internalNodes>
          <leafValues>
            -4.6061700582504272e-01 9.4308532774448395e-02</leafValues></_>
        <_>
          <internalNodes>
            0 -1 213 2.8609386645257473e-03</internalNodes>
          <leafValues>
            -1.2313371896743774e-01 3.3882302045822144e-01</leafValues></_>
        <_>
          <internalNodes>
            0 -1 62 -3.0578933656215668e-03</internalNodes>
          <leafValues>
            2.9257550835609436e-01 -1.7106531560420990e-01</leafValues></_>
        <_>
          <internalNodes>
            0 -1 390 -3.7023256300017238e-04</internalNodes>
          <leafValues>
            -4.3360745906829834e-01 1.0106912255287170e-01</leafValues></_>
        <_>
          <internalNodes>
            0 -1 313 7.1347639895975590e-03</internalNodes>
          <leafValues>
            6.1594974249601364e-02 -6.4374887943267822e-01</leafValues></_>
        <_>
          <internalNodes>
            0 -1 124 -5.2456585690379143e-03</internalNodes>
          <leafValues>
            2.7689725160598755e-01 -1.5328501164913177e-01</leafValues></_>
        <_>
          <internalNodes>
            0 -1 182 2.8856059070676565e-03</internalNodes>
          <leafValues>
            -1.4185972511768341e-01 2.9939290881156921e-01</leafValues></_>
        <_>
          <internalNodes>
            0 -1 472 -3.7921220064163208e-04</internalNodes>
          <leafValues>
            2.9115903377532959e-01 -1.4242231845855713e-01</leafValues></_>
        <_>
          <internalNodes>
            0 -1 315 2.2599268704652786e-02</internalNodes>
          <leafValues>
            1.2181840837001801e-01 -3.8701936602592468e-01</leafValues></_>
        <_>
          <internalNodes>
            0 -1 580 -3.7010307423770428e-03</internalNodes>
          <leafValues>
            3.5986417531967163e-01 -1.1913080513477325e-01</leafValues></_>
        <_>
          <internalNodes>
            0 -1 425 4.8573236563242972e-04</internalNodes>
          <leafValues>
            9.6437752246856689e-02 -4.2539221048355103e-01</leafValues></_>
        <_>
          <internalNodes>
            0 -1 191 -7.8724827617406845e-03</internalNodes>
          <leafValues>
            4.6786102652549744e-01 -8.6525842547416687e-02</leafValues></_>
        <_>
          <internalNodes>
            0 -1 291 5.2040861919522285e-03</internalNodes>
          <leafValues>
            6.6497996449470520e-02 -6.9789016246795654e-01</leafValues></_>
        <_>
          <internalNodes>
            0 -1 221 -5.0790324807167053e-02</internalNodes>
          <leafValues>
            3.9428707957267761e-01 -1.2704369425773621e-01</leafValues></_>
        <_>
          <internalNodes>
            0 -1 343 2.9647136107087135e-03</internalNodes>
          <leafValues>
            -1.3287091255187988e-01 3.8459369540214539e-01</leafValues></_>
        <_>
          <internalNodes>
            0 -1 596 -8.7195425294339657e-05</internalNodes>
          <leafValues>
            -3.2006374001502991e-01 1.4323501288890839e-01</leafValues></_>
        <_>
          <internalNodes>
            0 -1 217 6.3364007510244846e-03</internalNodes>
          <leafValues>
            -1.7365358769893646e-01 2.4601733684539795e-01</leafValues></_>
        <_>
          <internalNodes>
            0 -1 338 -1.0505372658371925e-02</internalNodes>
          <leafValues>
            2.4328562617301941e-01 -1.7527937889099121e-01</leafValues></_>
        <_>
          <internalNodes>
            0 -1 373 -1.2982524931430817e-02</internalNodes>
          <leafValues>
            -5.6428551673889160e-01 8.0218262970447540e-02</leafValues></_>
        <_>
          <internalNodes>
            0 -1 276 -2.5291945348726586e-05</internalNodes>
          <leafValues>
            2.2874021530151367e-01 -1.8778289854526520e-01</leafValues></_>
        <_>
          <internalNodes>
            0 -1 98 9.3763804761692882e-04</internalNodes>
          <leafValues>
            -1.3897608220577240e-01 3.2701182365417480e-01</leafValues></_>
        <_>
          <internalNodes>
            0 -1 257 -4.2497151298448443e-05</internalNodes>
          <leafValues>
            -2.8365448117256165e-01 1.7074675858020782e-01</leafValues></_>
        <_>
          <internalNodes>
            0 -1 26 -1.6792533919215202e-02</internalNodes>
          <leafValues>
            5.9002608060836792e-01 -8.4655746817588806e-02</leafValues></_>
        <_>
          <internalNodes>
            0 -1 211 -1.0812654181791004e-05</internalNodes>
          <leafValues>
            2.5085607171058655e-01 -1.7169947922229767e-01</leafValues></_>
        <_>
          <internalNodes>
            0 -1 331 1.1527385504450649e-04</internalNodes>
          <leafValues>
            -1.7613142728805542e-01 2.5280249118804932e-01</leafValues></_></weakClassifiers></_>
    <!-- stage 17 -->
    <_>
      <maxWeakCount>47</maxWeakCount>
      <stageThreshold>-9.4602376222610474e-01</stageThreshold>
      <weakClassifiers>
        <_>
          <internalNodes>
            0 -1 215 -1.3244703412055969e-02</internalNodes>
          <leafValues>
            6.8152868747711182e-01 1.4463452994823456e-01</leafValues></_>
        <_>
          <internalNodes>
            0 -1 308 -1.2934207916259766e-02</internalNodes>
          <leafValues>
            3.5707318782806396e-01 -1.0008881986141205e-01</leafValues></_>
        <_>
          <internalNodes>
            0 -1 446 -5.9937447076663375e-05</internalNodes>
          <leafValues>
            -3.4216371178627014e-01 1.3148726522922516e-01</leafValues></_>
        <_>
          <internalNodes>
            0 -1 451 -9.6227936446666718e-03</internalNodes>
          <leafValues>
            2.6284810900688171e-01 -1.3882407546043396e-01</leafValues></_>
        <_>
          <internalNodes>
            0 -1 548 -9.5278990920633078e-04</internalNodes>
          <leafValues>
            2.0174477994441986e-01 -2.0799922943115234e-01</leafValues></_>
        <_>
          <internalNodes>
            0 -1 152 -1.8493172246962786e-03</internalNodes>
